<?xml version="1.0"?>
<MethodSetup Method="DNN::DNN_CPU">
  <GeneralInfo>
    <Info name="TMVA Release" value="4.2.1 [262657]"/>
    <Info name="ROOT Release" value="6.12/07 [396295]"/>
    <Info name="Creator" value="todiotal"/>
    <Info name="Date" value="Tue Jul 23 16:40:06 2019"/>
    <Info name="Host" value="Linux cmsbuild87.cern.ch 2.6.32-696.30.1.el6.x86_64 #1 SMP Tue May 22 06:09:36 CEST 2018 x86_64 x86_64 x86_64 GNU/Linux"/>
    <Info name="Dir" value="/afs/cern.ch/user/t/todiotal/MSSM_Analysis/TMVA"/>
    <Info name="Training events" value="36800"/>
    <Info name="TrainingTime" value="9.26035430e+01"/>
    <Info name="AnalysisType" value="Classification"/>
  </GeneralInfo>
  <Options>
    <Option name="V" modified="Yes">True</Option>
    <Option name="VerbosityLevel" modified="No">Verbose</Option>
    <Option name="VarTransform" modified="Yes">N</Option>
    <Option name="H" modified="Yes">False</Option>
    <Option name="CreateMVAPdfs" modified="No">False</Option>
    <Option name="IgnoreNegWeightsInTraining" modified="No">False</Option>
    <Option name="Layout" modified="Yes">RELU|128,RELU|64,RELU|32,SIGMOID</Option>
    <Option name="ValidationSize" modified="No">20%</Option>
    <Option name="ErrorStrategy" modified="Yes">CROSSENTROPY</Option>
    <Option name="WeightInitialization" modified="Yes">XAVIERUNIFORM</Option>
    <Option name="Architecture" modified="Yes">CPU</Option>
    <Option name="TrainingStrategy" modified="Yes">LearningRate=1e-2,Momentum=0.9,Repetitions=1,ConvergenceSteps=30,BatchSize=256,TestRepetitions=10,WeightDecay=1e-4,Regularization=None,DropConfig=0.0+0.2+0.2+0.2,</Option>
  </Options>
  <Variables NVar="13">
    <Variable VarIndex="0" Expression="dimuon_deltar" Label="dimuon_deltar" Title="dimuon_deltar" Unit="" Internal="dimuon_deltar" Type="F" Min="2.83399373e-01" Max="5.40202522e+00"/>
    <Variable VarIndex="1" Expression="dimuon_deltaphi" Label="dimuon_deltaphi" Title="dimuon_deltaphi" Unit="" Internal="dimuon_deltaphi" Type="F" Min="-3.14149022e+00" Max="3.14137626e+00"/>
    <Variable VarIndex="2" Expression="dimuon_deltaeta" Label="dimuon_deltaeta" Title="dimuon_deltaeta" Unit="" Internal="dimuon_deltaeta" Type="F" Min="-4.49916363e+00" Max="4.64319372e+00"/>
    <Variable VarIndex="3" Expression="PU_Weight" Label="PU_Weight" Title="PU_Weight" Unit="" Internal="PU_Weight" Type="F" Min="-1.20764482e+00" Max="1.20764482e+00"/>
    <Variable VarIndex="4" Expression="Met_Pt" Label="Met_Pt" Title="Met_Pt" Unit="" Internal="Met_Pt" Type="F" Min="2.15548173e-01" Max="2.60323761e+02"/>
    <Variable VarIndex="5" Expression="btag_jet" Label="btag_jet" Title="btag_jet" Unit="" Internal="btag_jet" Type="I" Min="1.00000000e+00" Max="4.00000000e+00"/>
    <Variable VarIndex="6" Expression="no_btag_jet" Label="no_btag_jet" Title="no_btag_jet" Unit="" Internal="no_btag_jet" Type="I" Min="0.00000000e+00" Max="9.00000000e+00"/>
    <Variable VarIndex="7" Expression="bjet_pt" Label="bjet_pt" Title="bjet_pt" Unit="" Internal="bjet_pt" Type="F" Min="2.00036793e+01" Max="8.76736267e+02"/>
    <Variable VarIndex="8" Expression="bjet_eta" Label="bjet_eta" Title="bjet_eta" Unit="" Internal="bjet_eta" Type="F" Min="-2.39986706e+00" Max="2.39926910e+00"/>
    <Variable VarIndex="9" Expression="btag_jet_over2.4" Label="btag_jet_over2.4" Title="btag_jet_over2.4" Unit="" Internal="btag_jet_over2.4" Type="I" Min="0.00000000e+00" Max="2.00000000e+00"/>
    <Variable VarIndex="10" Expression="delta_R_bjet_dimuon" Label="delta_R_bjet_dimuon" Title="delta_R_bjet_dimuon" Unit="" Internal="delta_R_bjet_dimuon" Type="F" Min="5.92658632e-02" Max="8.67660904e+00"/>
    <Variable VarIndex="11" Expression="delta_pt_mupair_1bjet" Label="delta_pt_mupair_1bjet" Title="delta_pt_mupair_1bjet" Unit="" Internal="delta_pt_mupair_1bjet" Type="F" Min="-6.24063660e+02" Max="5.34538513e+02"/>
    <Variable VarIndex="12" Expression="delta_eta_mupair_1bjet" Label="delta_eta_mupair_1bjet" Title="delta_eta_mupair_1bjet" Unit="" Internal="delta_eta_mupair_1bjet" Type="F" Min="-8.48608875e+00" Max="7.82246113e+00"/>
  </Variables>
  <Spectators NSpec="0"/>
  <Classes NClass="2">
    <Class Name="Signal" Index="0"/>
    <Class Name="Background" Index="1"/>
  </Classes>
  <Transformations NTransformations="1">
    <Transform Name="Normalize">
      <Selection>
        <Input NInputs="13">
          <Input Type="Variable" Label="dimuon_deltar" Expression="dimuon_deltar"/>
          <Input Type="Variable" Label="dimuon_deltaphi" Expression="dimuon_deltaphi"/>
          <Input Type="Variable" Label="dimuon_deltaeta" Expression="dimuon_deltaeta"/>
          <Input Type="Variable" Label="PU_Weight" Expression="PU_Weight"/>
          <Input Type="Variable" Label="Met_Pt" Expression="Met_Pt"/>
          <Input Type="Variable" Label="btag_jet" Expression="btag_jet"/>
          <Input Type="Variable" Label="no_btag_jet" Expression="no_btag_jet"/>
          <Input Type="Variable" Label="bjet_pt" Expression="bjet_pt"/>
          <Input Type="Variable" Label="bjet_eta" Expression="bjet_eta"/>
          <Input Type="Variable" Label="btag_jet_over2.4" Expression="btag_jet_over2.4"/>
          <Input Type="Variable" Label="delta_R_bjet_dimuon" Expression="delta_R_bjet_dimuon"/>
          <Input Type="Variable" Label="delta_pt_mupair_1bjet" Expression="delta_pt_mupair_1bjet"/>
          <Input Type="Variable" Label="delta_eta_mupair_1bjet" Expression="delta_eta_mupair_1bjet"/>
        </Input>
        <Output NOutputs="13">
          <Output Type="Variable" Label="dimuon_deltar" Expression="dimuon_deltar"/>
          <Output Type="Variable" Label="dimuon_deltaphi" Expression="dimuon_deltaphi"/>
          <Output Type="Variable" Label="dimuon_deltaeta" Expression="dimuon_deltaeta"/>
          <Output Type="Variable" Label="PU_Weight" Expression="PU_Weight"/>
          <Output Type="Variable" Label="Met_Pt" Expression="Met_Pt"/>
          <Output Type="Variable" Label="btag_jet" Expression="btag_jet"/>
          <Output Type="Variable" Label="no_btag_jet" Expression="no_btag_jet"/>
          <Output Type="Variable" Label="bjet_pt" Expression="bjet_pt"/>
          <Output Type="Variable" Label="bjet_eta" Expression="bjet_eta"/>
          <Output Type="Variable" Label="btag_jet_over2.4" Expression="btag_jet_over2.4"/>
          <Output Type="Variable" Label="delta_R_bjet_dimuon" Expression="delta_R_bjet_dimuon"/>
          <Output Type="Variable" Label="delta_pt_mupair_1bjet" Expression="delta_pt_mupair_1bjet"/>
          <Output Type="Variable" Label="delta_eta_mupair_1bjet" Expression="delta_eta_mupair_1bjet"/>
        </Output>
      </Selection>
      <Class ClassIndex="0">
        <Ranges>
          <Range Index="0" Min="8.6254847049713135e-01" Max="5.4020252227783203e+00"/>
          <Range Index="1" Min="-3.1414902210235596e+00" Max="3.1413762569427490e+00"/>
          <Range Index="2" Min="-4.4991636276245117e+00" Max="4.6431937217712402e+00"/>
          <Range Index="3" Min="6.7270913859829307e-04" Max="1.2076448202133179e+00"/>
          <Range Index="4" Min="2.4211752414703369e-01" Max="2.3772485351562500e+02"/>
          <Range Index="5" Min="1.0000000000000000e+00" Max="3.0000000000000000e+00"/>
          <Range Index="6" Min="0.0000000000000000e+00" Max="7.0000000000000000e+00"/>
          <Range Index="7" Min="2.0003679275512695e+01" Max="8.7673626708984375e+02"/>
          <Range Index="8" Min="-2.3997340202331543e+00" Max="2.3992691040039062e+00"/>
          <Range Index="9" Min="0.0000000000000000e+00" Max="2.0000000000000000e+00"/>
          <Range Index="10" Min="6.4870029687881470e-02" Max="8.6766090393066406e+00"/>
          <Range Index="11" Min="-3.4118481445312500e+02" Max="3.7999490356445312e+02"/>
          <Range Index="12" Min="-8.4860887527465820e+00" Max="7.3865342140197754e+00"/>
        </Ranges>
      </Class>
      <Class ClassIndex="1">
        <Ranges>
          <Range Index="0" Min="2.8339937329292297e-01" Max="5.0846080780029297e+00"/>
          <Range Index="1" Min="-3.1414861679077148e+00" Max="3.1413655281066895e+00"/>
          <Range Index="2" Min="-3.2937197685241699e+00" Max="4.0997166633605957e+00"/>
          <Range Index="3" Min="-1.2076448202133179e+00" Max="1.2076448202133179e+00"/>
          <Range Index="4" Min="2.1554817259311676e-01" Max="2.6032376098632812e+02"/>
          <Range Index="5" Min="1.0000000000000000e+00" Max="4.0000000000000000e+00"/>
          <Range Index="6" Min="0.0000000000000000e+00" Max="9.0000000000000000e+00"/>
          <Range Index="7" Min="2.0004955291748047e+01" Max="7.6972717285156250e+02"/>
          <Range Index="8" Min="-2.3998670578002930e+00" Max="2.3991634845733643e+00"/>
          <Range Index="9" Min="0.0000000000000000e+00" Max="2.0000000000000000e+00"/>
          <Range Index="10" Min="5.9265863150358200e-02" Max="8.1885156631469727e+00"/>
          <Range Index="11" Min="-6.2406365966796875e+02" Max="5.3453851318359375e+02"/>
          <Range Index="12" Min="-7.6963939666748047e+00" Max="7.8224611282348633e+00"/>
        </Ranges>
      </Class>
      <Class ClassIndex="2">
        <Ranges>
          <Range Index="0" Min="2.8339937329292297e-01" Max="5.4020252227783203e+00"/>
          <Range Index="1" Min="-3.1414902210235596e+00" Max="3.1413762569427490e+00"/>
          <Range Index="2" Min="-4.4991636276245117e+00" Max="4.6431937217712402e+00"/>
          <Range Index="3" Min="-1.2076448202133179e+00" Max="1.2076448202133179e+00"/>
          <Range Index="4" Min="2.1554817259311676e-01" Max="2.6032376098632812e+02"/>
          <Range Index="5" Min="1.0000000000000000e+00" Max="4.0000000000000000e+00"/>
          <Range Index="6" Min="0.0000000000000000e+00" Max="9.0000000000000000e+00"/>
          <Range Index="7" Min="2.0003679275512695e+01" Max="8.7673626708984375e+02"/>
          <Range Index="8" Min="-2.3998670578002930e+00" Max="2.3992691040039062e+00"/>
          <Range Index="9" Min="0.0000000000000000e+00" Max="2.0000000000000000e+00"/>
          <Range Index="10" Min="5.9265863150358200e-02" Max="8.6766090393066406e+00"/>
          <Range Index="11" Min="-6.2406365966796875e+02" Max="5.3453851318359375e+02"/>
          <Range Index="12" Min="-8.4860887527465820e+00" Max="7.8224611282348633e+00"/>
        </Ranges>
      </Class>
    </Transform>
  </Transformations>
  <MVAPdfs/>
  <Weights InputWidth="13" Depth="4" LossFunction="C" OutputFunction="S">
    <Layer ActivationFunction="1">
      <Weights rows="128" cols="13">
        -1.3488428294658661e-01 4.0213525295257568e-02 -1.3305939733982086e-01 -9.8246872425079346e-02 -8.7303809821605682e-02 -3.4263575077056885e-01 -1.8592681735754013e-02 -2.8555213939398527e-03 -3.4330037236213684e-01 5.5309306830167770e-02 -4.7011938877403736e-03 -3.9676636457443237e-01 5.8921420574188232e-01 -5.4304701089859009e-01 6.1101980507373810e-02 -9.9491417407989502e-02 2.3443754017353058e-01 -3.9207451045513153e-02 9.6431173384189606e-02 -3.0940739437937737e-02 -7.2367441654205322e-01 -1.3585148751735687e-01 1.2707023322582245e-01 -3.7378963828086853e-01 -8.8819783926010132e-01 -4.5408722758293152e-01 -3.2023355364799500e-01 8.4514439105987549e-02 5.4067835211753845e-02 2.8851750493049622e-01 1.9509638845920563e-01 -6.0391042381525040e-02 3.7040027976036072e-01 3.2697024941444397e-01 -3.4665767103433609e-02 4.0066668391227722e-01 -2.7970844507217407e-01 1.3759307563304901e-01 -8.7503053247928619e-02 -2.0557294785976410e-01 -6.7032366991043091e-01 -1.5530753135681152e-01 9.2781841754913330e-02 4.8867221921682358e-03 -9.4266086816787720e-02 1.5914505720138550e-01 -1.6086882352828979e-01 -1.8563410267233849e-03 5.2950519323348999e-01 6.1801221221685410e-02 2.3610089719295502e-01 -1.4528986811637878e-01 -4.2891836166381836e-01 5.9532612562179565e-02 2.8669017553329468e-01 1.0295248776674271e-01 -1.1315084993839264e-01 3.4588789939880371e-01 2.8868901729583740e-01 -4.0536323189735413e-01 -2.8518438339233398e-01 1.6661097109317780e-01 1.2671431899070740e-01 3.3499488234519958e-01 3.4112530946731567e-01 9.0691652148962021e-03 -5.0019234418869019e-01 2.3497456684708595e-02 -1.4953147619962692e-02 -2.5345385074615479e-01 1.6225588321685791e-01 -4.4266879558563232e-02 -1.0915881022810936e-02 1.2456195056438446e-01 3.0109021067619324e-01 2.8703668713569641e-01 2.1638467907905579e-01 -2.5035095214843750e-01 -2.7150842547416687e-01 1.3253678381443024e-01 2.6689490675926208e-01 -2.3309175670146942e-01 1.2074630707502365e-01 2.9530331492424011e-01 -3.0508428812026978e-01 2.8687137365341187e-01 -1.7463979125022888e-01 2.7851760387420654e-01 -2.3066274821758270e-01 3.2190048694610596e-01 4.2922485619783401e-02 1.9746501743793488e-01 -3.6234638094902039e-01 4.4706279039382935e-01 -1.8589517474174500e-01 -1.6629791259765625e-01 7.4767850339412689e-02 2.7748021483421326e-01 -1.5114545822143555e-01 1.0358686000108719e-01 2.0384585857391357e-01 -9.0969190001487732e-02 -1.6628037393093109e-01 -2.3917052149772644e-01 3.5895183682441711e-02 -1.3847059011459351e-01 4.3401822447776794e-02 -5.4618662595748901e-01 -3.2712787389755249e-01 -1.9503445923328400e-01 1.8079955875873566e-01 4.2466160655021667e-01 9.8370507359504700e-02 6.0314845293760300e-02 -1.4470633864402771e-01 3.3378532528877258e-01 -3.2998353242874146e-01 -7.0825666189193726e-01 -2.4185175076127052e-02 5.4871749132871628e-02 2.1878707408905029e-01 -6.8174079060554504e-02 1.5070612728595734e-01 1.3961340300738811e-02 -5.2129481919109821e-03 1.9111387431621552e-01 -1.9175988435745239e-01 -2.9437595605850220e-01 -2.6954263448715210e-01 3.3694756031036377e-01 -2.9820898175239563e-01 -3.6705523729324341e-01 2.6592308282852173e-01 1.1960112303495407e-01 2.3155173659324646e-01 -3.2665762305259705e-01 2.8589344024658203e-01 5.3943421691656113e-02 -3.1877136230468750e-01 1.8723766505718231e-01 9.5576025545597076e-02 -4.1807213425636292e-01 3.1271484494209290e-01 2.0945727825164795e-01 -5.3833889961242676e-01 1.9036452285945415e-03 -1.5731400251388550e-01 2.7392867207527161e-01 -1.9284714758396149e-01 -2.2023963928222656e-01 -6.6141523420810699e-03 -2.2507885098457336e-01 -2.6613464578986168e-02 4.1760799288749695e-01 2.7081727981567383e-01 -6.9957301020622253e-02 1.4490064978599548e-01 -2.4310925602912903e-01 3.2240363955497742e-01 -5.3715441375970840e-02 3.6948141455650330e-01 2.3440646007657051e-02 -1.0744683444499969e-01 8.6309149861335754e-02 2.8372329473495483e-01 2.2158853709697723e-01 -4.1994508355855942e-02 2.2216181457042694e-01 1.6972936689853668e-01 6.5955370664596558e-01 9.6245378255844116e-02 -7.9729117453098297e-02 7.8605964779853821e-02 5.5297999642789364e-03 4.9841296672821045e-01 1.2810743413865566e-02 -7.7971033751964569e-02 -2.0915159583091736e-01 -4.1052511334419250e-01 -1.8144372105598450e-01 4.0661934018135071e-01 9.3409419059753418e-03 -4.5442998409271240e-01 2.1005821228027344e-01 -2.3190324008464813e-01 -3.6124237813055515e-03 -1.2137936055660248e-01 -2.1265958249568939e-01 6.9918669760227203e-02 2.1132405102252960e-01 9.8837904632091522e-02 -3.1065085530281067e-01 1.1523637920618057e-01 5.7358074188232422e-01 4.0202502161264420e-02 -6.8018811941146851e-01 -1.3998840749263763e-01 2.7424061298370361e-01 1.7328843474388123e-02 -3.0950662493705750e-01 3.0576935410499573e-01 1.2346556410193443e-02 -5.6653082370758057e-02 5.4681833833456039e-02 -1.6696891188621521e-01 -1.7559996247291565e-01 2.3458445072174072e-01 -2.1563892066478729e-01 2.9162069782614708e-02 7.0104207843542099e-03 2.7447262406349182e-01 3.4091433882713318e-01 1.7751829326152802e-01 1.3163138926029205e-01 -2.7812650799751282e-01 -1.0238686800003052e+00 -1.8189203739166260e-01 3.3839371800422668e-01 -2.9532769322395325e-01 -1.2049018144607544e+00 2.5045716762542725e-01 3.7929227948188782e-01 -3.0268025398254395e-01 1.0618985444307327e-01 -2.4463534355163574e-01 -2.6788714528083801e-01 -4.0924015641212463e-01 -1.6904370486736298e-01 2.6144006848335266e-01 1.3273804448544979e-02 -9.9053256213665009e-02 -5.6609943509101868e-02 2.1316055953502655e-01 1.3256181776523590e-01 -3.4602630138397217e-01 3.5105657298117876e-03 1.7288048565387726e-01 1.8533620238304138e-01 -3.0136123299598694e-01 -5.3809010982513428e-01 2.1052387356758118e-01 -8.9668798446655273e-01 2.0867095887660980e-01 2.8500193357467651e-01 3.4911000728607178e-01 -7.5809705257415771e-01 -3.1607264280319214e-01 -4.7751051187515259e-01 2.2891074419021606e-01 5.0266808271408081e-01 3.4333604574203491e-01 2.9818508028984070e-01 1.9122827053070068e-01 7.2500638663768768e-02 -1.0678797215223312e-01 2.9127421975135803e-01 -1.9636614620685577e-01 8.7162880226969719e-03 -1.3454803265631199e-02 -3.9592412114143372e-01 3.5080850124359131e-01 -5.1955379545688629e-02 2.1628510951995850e-01 8.3250768482685089e-02 -1.2079218029975891e-01 -4.6858140826225281e-01 -3.6906924843788147e-01 6.8880087137222290e-01 -2.7847642195411026e-04 3.5987749695777893e-01 3.8195544481277466e-01 9.5116180181503296e-01 5.4304774850606918e-02 6.0778710991144180e-02 2.7850538492202759e-01 -2.4863362312316895e-02 -1.3817858695983887e-01 -1.2758699059486389e-01 3.2086473703384399e-01 3.6982873082160950e-01 2.2468045353889465e-01 3.4703940153121948e-02 1.6574238240718842e-01 -3.2848015427589417e-01 5.0808664411306381e-02 -3.2926779985427856e-01 3.8673132658004761e-01 6.2643557786941528e-02 3.0020135641098022e-01 3.8671800494194031e-01 3.5855945944786072e-01 1.7191480845212936e-02 3.6618325114250183e-01 -2.7819776535034180e-01 1.5532062947750092e-01 3.7720435857772827e-01 7.1420237421989441e-02 -6.2046900391578674e-02 -1.2814053893089294e-01 3.0660256743431091e-01 4.9587424844503403e-02 2.2163346409797668e-02 -4.9244973063468933e-01 -5.5359009653329849e-02 -1.4959742128849030e-01 9.2130370438098907e-02 -2.5438252091407776e-01 -3.7723716348409653e-02 2.4875070154666901e-01 3.8782140612602234e-01 2.7466502785682678e-01 4.0058290958404541e-01 4.2738577723503113e-01 2.1610960364341736e-01 -2.2455869615077972e-01 2.1560123562812805e-01 1.6180478036403656e-01 4.7756624221801758e-01 2.8810828924179077e-01 -8.2079701125621796e-02 1.7589418590068817e-01 -3.8960275053977966e-01 -4.2339295148849487e-01 5.5845415592193604e-01 -1.1584822088479996e-01 -1.1883092671632767e-01 9.9932905286550522e-03 -2.0132471621036530e-01 -2.4075546860694885e-01 -3.2238832116127014e-01 2.1844200789928436e-01 -1.6947026550769806e-01 -4.2190870642662048e-01 -1.1022856831550598e-01 -2.7379685640335083e-01 1.3562002778053284e-01 -7.2751265764236450e-01 -3.2017126679420471e-01 3.4741711616516113e-01 -1.3911759853363037e-01 -2.1552699804306030e-01 1.1214119195938110e-01 -1.9583530724048615e-01 1.1684044450521469e-01 -1.0599518567323685e-01 2.7573496103286743e-01 6.7085254192352295e-01 2.1941669285297394e-01 3.8991001248359680e-01 1.2718619406223297e-01 7.7182608842849731e-01 1.7551760375499725e-01 -1.0820873081684113e-01 -2.7172264456748962e-01 1.4548662118613720e-02 -1.0694459080696106e-01 1.1281003803014755e-01 -4.6238973736763000e-02 2.8961318731307983e-01 4.9840217828750610e-01 1.1230138689279556e-01 -4.2064553499221802e-01 -2.2123259305953979e-01 4.2519614100456238e-01 -9.2840589582920074e-02 -6.2536880373954773e-02 -1.8884500488638878e-02 -3.4792995452880859e-01 7.4617244303226471e-02 3.9116904139518738e-01 -2.4953335523605347e-01 3.6121121048927307e-01 2.9040431976318359e-01 1.1391711980104446e-01 1.9975374639034271e-01 4.9505416303873062e-02 1.1632813513278961e-01 3.6110904812812805e-01 -9.2560656368732452e-02 -1.0376028716564178e-01 7.3353029787540436e-02 1.0532510280609131e-01 3.7783902883529663e-01 8.7717249989509583e-02 -1.3091044127941132e-01 -1.6347983479499817e-01 3.5785251855850220e-01 1.0149694979190826e-01 -2.6444619894027710e-01 1.2107215076684952e-01 -1.1165630817413330e+00 -4.5331139117479324e-02 6.2153047323226929e-01 -3.2833041623234749e-03 -1.8282374739646912e-01 -1.2636503577232361e-01 -5.4591905325651169e-02 2.4104218184947968e-01 -5.4195649921894073e-02 -3.5730961710214615e-02 -1.2962901592254639e-01 2.3249283432960510e-01 1.7926569283008575e-01 3.2211500406265259e-01 4.4246318936347961e-01 -2.0953665953129530e-03 -2.5326314568519592e-01 -3.2129278779029846e-01 -2.1203206479549408e-01 -1.9476667046546936e-01 -6.0443028807640076e-02 -3.5702455043792725e-01 3.4133461117744446e-01 2.7587857842445374e-01 2.2467888891696930e-01 -3.5800874233245850e-01 -6.8850564956665039e-01 1.9567746669054031e-02 1.1212990432977676e-01 -3.7966734170913696e-01 6.6121615469455719e-02 6.0901962220668793e-02 -1.0923975706100464e-01 3.5846135020256042e-01 1.1037836782634258e-02 -2.6463186740875244e-01 -2.3405497893691063e-02 3.5689774155616760e-01 1.6068898141384125e-01 -7.2329807281494141e-01 -1.8270169198513031e-01 -2.1933940052986145e-01 4.4704994559288025e-01 -2.1650377660989761e-02 -8.8625818490982056e-02 -9.5123894512653351e-02 -5.5409079790115356e-01 -1.4157749712467194e-01 -5.0558079034090042e-02 3.4965905547142029e-01 -4.6076413989067078e-01 -6.0564089566469193e-02 -8.8436210155487061e-01 -8.6197052150964737e-03 -8.7823617458343506e-01 -4.1793562471866608e-02 1.2097622454166412e-01 -2.3730538785457611e-01 -1.4549618959426880e-01 -6.4418300986289978e-02 -3.6085411906242371e-02 1.8914182484149933e-01 -7.2773978114128113e-02 3.6758452653884888e-01 6.7864791490137577e-03 -5.6977051496505737e-01 -1.1313856393098831e-01 3.2694801688194275e-01 -2.9336413741111755e-01 2.0314344763755798e-01 -5.1303154230117798e-01 1.6344583034515381e-01 -1.5455770492553711e-01 1.9579081237316132e-01 -1.0622616857290268e-01 2.3362068831920624e-01 1.2854948639869690e-01 8.4865316748619080e-02 1.0961059480905533e-01 -4.3178830295801163e-02 -2.6353949308395386e-01 2.6634934544563293e-01 2.1247060596942902e-01 3.3536323904991150e-01 1.4782686717808247e-02 -2.3975191637873650e-02 1.6663627326488495e-01 2.2586999833583832e-01 1.3208816945552826e-01 -5.3709726780653000e-02 1.4304119348526001e-01 -3.5040163993835449e-01 3.8951545953750610e-02 7.2843611240386963e-02 5.5737793445587158e-01 1.5636005997657776e-01 -1.0038410872220993e-01 -5.3687170147895813e-02 -7.6613140106201172e-01 -9.2142365872859955e-02 1.1427043378353119e-01 4.7861003875732422e-01 -8.4814411401748657e-01 3.8050553202629089e-01 1.1927735060453415e-01 2.8048783540725708e-01 3.5383224487304688e-01 -1.1798626929521561e-01 3.0863109230995178e-01 3.2882356643676758e-01 3.2836057245731354e-02 3.3466380555182695e-03 -8.9932568371295929e-02 2.1136565506458282e-01 2.7394214272499084e-01 -3.6509025096893311e-01 3.6932748556137085e-01 3.7129190564155579e-01 -2.0835219323635101e-01 -2.0102639496326447e-01 2.4400210380554199e-01 3.0444228649139404e-01 -2.7133351564407349e-01 -1.0597965680062771e-02 2.0104366540908813e-01 -2.3737648129463196e-01 1.0551217943429947e-01 3.0158898234367371e-01 -1.4350666105747223e-01 -3.8167315721511841e-01 1.1649711430072784e-01 -5.7722026109695435e-01 3.0379459261894226e-01 -1.5675531327724457e-01 1.4002512395381927e-01 -2.7327746152877808e-01 -1.8489481508731842e-01 4.1732126474380493e-01 1.2350317835807800e-01 -3.7208741996437311e-03 4.5312732458114624e-02 -3.2112699002027512e-02 -3.0253985524177551e-01 -4.3954288959503174e-01 2.7421274781227112e-01 2.3719105124473572e-01 -3.4707942605018616e-01 1.0869386792182922e-01 -2.4592675268650055e-01 -9.9631711840629578e-02 -4.9806895852088928e-01 2.1735154092311859e-01 -3.5051301121711731e-01 -2.0567427575588226e-01 -6.5638226270675659e-01 8.2621118053793907e-03 1.7710703611373901e-01 6.9559937715530396e-01 2.4520424008369446e-01 1.8276755511760712e-01 -3.0800965428352356e-01 -1.1085766553878784e-01 2.4447016417980194e-01 2.9319354891777039e-01 2.4311207234859467e-01 4.0188288688659668e-01 4.2888514697551727e-02 4.1467498987913132e-02 2.6998332142829895e-01 -2.3135560750961304e-01 2.7343539521098137e-02 -6.0364332050085068e-02 -3.2134538888931274e-01 -3.8529959321022034e-01 -8.6049415171146393e-02 -1.0371468961238861e-02 4.6801537275314331e-01 -7.6795063912868500e-02 -3.7682643532752991e-01 3.7702739238739014e-01 -1.0303390026092529e-01 2.9811503365635872e-02 3.4189462661743164e-01 1.0376944541931152e+00 -1.4720083773136139e-01 4.1113968938589096e-02 3.4271606802940369e-01 -4.9324557185173035e-02 2.0460078120231628e-01 2.0096324384212494e-01 -3.1071437988430262e-03 -8.9261159300804138e-02 -1.2529167532920837e-01 5.5103808641433716e-01 2.3118746280670166e-01 -3.8709774613380432e-01 1.9645267724990845e-01 3.2105079293251038e-01 2.4202731251716614e-01 1.4513555169105530e-01 -2.7307689189910889e-01 -1.7355759441852570e-01 -2.7693897485733032e-01 9.4089947640895844e-02 -1.3290733098983765e-01 -1.3214631378650665e-01 -8.9510089159011841e-01 1.1286894977092743e-01 -3.1788417696952820e-01 1.8881367146968842e-01 -1.4733482897281647e-01 2.2184556722640991e-01 3.4682765603065491e-01 -4.3449062854051590e-02 3.7831792235374451e-01 -2.3219321668148041e-01 2.5885064154863358e-02 -2.7555611729621887e-01 -6.8939365446567535e-02 9.9658958613872528e-02 -1.2377833575010300e-01 1.7083254456520081e-01 -4.7656246460974216e-03 -4.6546670794487000e-01 6.9285169243812561e-02 -7.8405864536762238e-02 -2.4858559668064117e-01 -2.7154801413416862e-02 3.1241312623023987e-01 3.2363554835319519e-01 2.1187737584114075e-01 3.4814652800559998e-01 -3.4668359160423279e-01 -1.5002401173114777e-01 -1.0781099647283554e-01 -9.5849540084600449e-03 -2.6838597655296326e-01 -8.4912693500518799e-01 2.3674164712429047e-01 -2.9270049929618835e-01 -2.6386690139770508e-01 3.6620715260505676e-01 -1.1888183653354645e-01 3.9976201951503754e-02 -1.8134231865406036e-01 8.8371798396110535e-02 -1.7208720743656158e-01 1.5003074705600739e-01 -7.1141612529754639e-01 -1.4402006566524506e-01 -2.2338402271270752e-01 -3.4053274989128113e-01 4.6729320287704468e-01 -1.7650616168975830e-01 -9.1964796185493469e-02 -4.2574641108512878e-01 3.8888119161128998e-02 -6.8119913339614868e-02 4.8042628169059753e-01 1.0304785519838333e-01 -6.1917805671691895e-01 -2.5097501277923584e-01 -3.6634516716003418e-01 -3.0927053093910217e-01 7.0967286825180054e-02 -5.6580269336700439e-01 2.5293856859207153e-01 -9.1947817802429199e-01 1.7513519525527954e-01 -1.6285805404186249e-01 -2.9740273952484131e-01 -1.1813266277313232e+00 -1.6023628413677216e-01 -1.8431317806243896e-01 4.8212908208370209e-02 -1.6779826581478119e-01 -1.3467361032962799e-01 -3.4070050716400146e-01 -1.4049418270587921e-01 3.7167012691497803e-01 -4.7964563965797424e-01 3.1112936139106750e-01 1.6911216080188751e-01 8.0586038529872894e-02 -2.5468209385871887e-01 -4.8946309089660645e-01 -3.5299843549728394e-01 7.1850746870040894e-02 -4.1630946099758148e-02 -3.6145305633544922e-01 2.3515795171260834e-01 -4.7610100358724594e-02 -3.2763865590095520e-01 -1.0454703569412231e+00 -4.4669844210147858e-02 -3.6886349320411682e-02 -6.3468597829341888e-02 -1.6289093494415283e+00 1.2311603873968124e-01 6.2206560373306274e-01 -5.4668981581926346e-02 -8.2667104899883270e-02 -1.4939919114112854e-02 1.0394954122602940e-02 -8.5447736084461212e-02 4.6836311230435967e-04 1.6280893087387085e+00 6.5616235136985779e-02 -8.7981194257736206e-01 4.5675927400588989e-01 2.0978813171386719e+00 4.7702090814709663e-03 3.0961048603057861e-01 -1.7845790088176727e-01 -1.6659041866660118e-02 -1.9134429097175598e-01 9.6040077507495880e-02 -6.9866281747817993e-01 -5.0315931439399719e-02 -3.0240058898925781e-01 8.9996039867401123e-02 3.7497780285775661e-03 1.1586839705705643e-01 -9.4402045011520386e-02 8.9291900396347046e-02 3.1589657068252563e-01 5.3421151638031006e-01 -1.3697238266468048e-01 -1.1894797533750534e-01 1.0956794768571854e-01 -1.0457515716552734e-01 2.8811000287532806e-02 2.2591373324394226e-01 2.5111935101449490e-03 -1.8285386264324188e-01 -2.7595165371894836e-01 -1.9662390649318695e-01 -1.3612881302833557e-01 5.5196726322174072e-01 1.8770318478345871e-02 1.3451425731182098e-01 -6.4883247017860413e-02 -1.9145962595939636e-01 3.4099623560905457e-02 -1.2230984866619110e-01 4.4601759314537048e-01 -1.5692258253693581e-02 1.9673092663288116e-01 3.1234506517648697e-02 1.2707444429397583e+00 -3.2038003206253052e-02 -3.6510092020034790e-01 3.2184508442878723e-01 3.9100918173789978e-01 4.1649971157312393e-02 3.1940132379531860e-01 -5.3308508358895779e-03 -2.4929569661617279e-01 -6.4972198009490967e-01 -1.6394762694835663e-01 -1.0411155968904495e-01 -2.6732203364372253e-01 -5.5309683084487915e-01 -1.1539554595947266e-01 -2.5190442800521851e-01 1.1041572690010071e-01 -1.1225211620330811e-01 -4.0101027488708496e-01 2.7824583649635315e-01 -5.6066310405731201e-01 -2.6172816753387451e-01 -5.2459633350372314e-01 1.3041453063488007e-01 -2.1034955978393555e-01 4.4150543399155140e-03 -4.9715605378150940e-01 2.4914944544434547e-02 5.9330437332391739e-02 1.1584557592868805e-01 3.5935080051422119e-01 -3.0592346191406250e-01 2.8026893734931946e-01 3.8424512743949890e-01 -2.5766542553901672e-01 3.8809004426002502e-01 -2.1750439703464508e-01 1.8778385221958160e-01 1.8822480738162994e-01 3.1520056724548340e-01 -3.7189248204231262e-01 6.4750802516937256e-01 -3.9546462893486023e-01 -1.3258454203605652e-01 9.0255275368690491e-02 -1.3875631615519524e-02 -2.9328563809394836e-01 2.1119341254234314e-01 5.2410024404525757e-01 5.9726363420486450e-01 -2.3804849013686180e-02 -1.6743054986000061e-01 5.7956457138061523e-01 4.6619248390197754e-01 -3.9602104574441910e-02 3.0346617568284273e-03 1.9529148936271667e-01 -3.6551597714424133e-01 2.1611322462558746e-01 -3.5612881183624268e-01 -2.4002169072628021e-01 4.5408976078033447e-01 2.4983108043670654e-02 -4.1147661209106445e-01 -2.0084227621555328e-01 -9.5686037093400955e-03 4.6681568026542664e-02 3.1076994538307190e-01 1.3437303900718689e-01 -3.8339594006538391e-01 -3.4279918670654297e-01 -1.7940948903560638e-01 5.6689314544200897e-02 3.0918723344802856e-01 2.7328848838806152e-01 1.5400519967079163e-01 2.2908549010753632e-01 -8.9740097522735596e-02 9.7623072564601898e-02 -2.6323381066322327e-01 2.4988552927970886e-01 1.0030516423285007e-02 -9.3368098139762878e-02 -3.0157935619354248e-01 2.4561285972595215e-01 1.2773430347442627e-01 3.6793562769889832e-01 3.1104622408747673e-02 -3.7847870588302612e-01 -2.4116773903369904e-01 -6.0447584837675095e-02 9.6287883818149567e-02 -2.2849074006080627e-01 -2.0782381296157837e-01 2.3427014052867889e-01 8.9386001229286194e-02 -4.2664915323257446e-01 2.4301153421401978e-01 -2.5139680504798889e-01 2.7010786533355713e-01 -2.5013363361358643e-01 -2.8190433979034424e-01 2.1377767622470856e-01 3.8604715466499329e-01 -3.3052268624305725e-01 1.4556945860385895e-01 3.2679709792137146e-01 -2.6790136098861694e-01 -6.1680644750595093e-02 -5.9998249635100365e-03 2.3204344511032104e-01 2.3267592489719391e-01 2.2567932307720184e-01 3.2616451382637024e-01 6.0485143214464188e-02 -2.2476597130298615e-01 2.0512039959430695e-01 -1.0697292536497116e-01 3.5482913255691528e-02 3.4076267480850220e-01 1.8217283487319946e-01 -1.2363696843385696e-01 -2.6967099308967590e-01 -6.8781441077589989e-03 2.8853204846382141e-01 7.6139561831951141e-02 2.1858386695384979e-01 -4.2242888361215591e-02 -2.7833057101815939e-03 6.1892401427030563e-02 -1.4621762931346893e-01 2.3570647835731506e-01 2.9806712269783020e-01 -4.4591538608074188e-03 7.9587981104850769e-02 -4.0286155417561531e-03 -2.4832282960414886e-01 2.0150795578956604e-01 1.7416724562644958e-01 3.5321068763732910e-01 1.6080796718597412e-01 1.1198983341455460e-01 3.0363577604293823e-01 2.7889433503150940e-01 3.4712842106819153e-01 2.3738022148609161e-01 -1.3512071967124939e-01 8.9925087988376617e-02 5.2145090885460377e-03 -2.8787967562675476e-01 -2.1047216653823853e-01 -1.0255523025989532e-01 -2.3948529362678528e-01 3.2078772783279419e-01 -4.9061093479394913e-02 3.3343437314033508e-01 -5.0911480188369751e-01 -2.3025366663932800e-01 -2.6327270269393921e-01 -4.6579789370298386e-02 6.4370930194854736e-02 -2.3958262801170349e-01 2.4943862855434418e-01 9.9597491323947906e-02 9.8909355700016022e-02 3.2784345746040344e-01 8.6054049432277679e-02 2.2482371330261230e-01 3.0019736289978027e-01 2.9153230786323547e-01 3.7136623263359070e-01 -1.9661599397659302e-01 -2.0090885460376740e-01 -3.8197192549705505e-01 3.7459561228752136e-01 3.5835778713226318e-01 2.6527532935142517e-01 3.5362070798873901e-01 1.0748182982206345e-01 2.5336489081382751e-01 2.3544457554817200e-01 -8.3321087062358856e-02 2.9408156871795654e-01 -2.7273336052894592e-01 4.0948179364204407e-01 1.1546717584133148e-01 -3.0767856165766716e-02 1.1737699061632156e-01 -2.2203205525875092e-01 -5.2161890268325806e-01 -3.0837577581405640e-01 1.3612732887268066e+00 -1.3319389522075653e-01 1.2553654611110687e-01 4.4807103276252747e-01 1.9672751426696777e+00 -1.2026043981313705e-01 4.3275406956672668e-01 1.0526063442230225e+00 -3.9206930994987488e-01 7.6303191483020782e-02 2.6004904508590698e-01 3.3274453133344650e-02 -3.5251739621162415e-01 3.4465450048446655e-01 3.9037998765707016e-02 3.9228716492652893e-01 -4.4403234124183655e-01 5.0520312786102295e-01 -9.7294166684150696e-02 7.6351046562194824e-02 2.2888314723968506e-01 2.0587114989757538e-01 1.2656328082084656e-01 8.9200876653194427e-02 1.2268438190221786e-01 -1.7581887543201447e-01 3.4269422292709351e-01 2.8511941432952881e-01 -6.2856450676918030e-02 -6.5279833972454071e-02 3.9798054099082947e-01 3.4652534872293472e-02 -1.2887601554393768e-01 1.2902462482452393e-01 2.2870193421840668e-01 -2.7889141440391541e-01 -1.2622156739234924e-01 -5.3232550621032715e-01 5.2967317402362823e-02 -6.0796600580215454e-01 2.4890759587287903e-01 1.9626416265964508e-01 -2.3145033046603203e-02 -3.4220182895660400e-01 -2.6921910047531128e-01 -1.0837786644697189e-01 -7.2802597284317017e-01 -2.9357647895812988e-01 3.0559547245502472e-02 -7.2736412286758423e-02 -1.7466557025909424e-01 2.0903274416923523e-01 1.1372784525156021e-01 -2.4204850196838379e-01 2.5449717044830322e-01 -1.0837433859705925e-02 -9.0335356071591377e-04 1.3570146262645721e-01 2.7249741554260254e-01 -5.6491464376449585e-01 -6.2913671135902405e-02 -2.0013587176799774e-01 5.3757369518280029e-02 -1.4001700282096863e-01 -1.9105237722396851e-01 3.8580471277236938e-01 2.9312899708747864e-01 1.1764996498823166e-01 -2.7329882979393005e-01 1.9959725439548492e-01 1.5963368117809296e-01 4.6776622533798218e-01 5.1970012485980988e-02 -3.1456419825553894e-01 1.3076353073120117e-01 8.8203348219394684e-02 -2.3698416352272034e-01 1.5569344162940979e-01 -6.2450188398361206e-01 1.6192327439785004e-01 1.7054885625839233e-01 3.9202824234962463e-02 -7.0842844247817993e-01 -3.3411702513694763e-01 2.1154260635375977e-01 -7.8931641578674316e-01 -1.4862342178821564e-01 -4.8422861844301224e-02 2.1079139783978462e-02 -1.8879154324531555e-01 -1.8374486267566681e-01 3.3993107080459595e-01 -1.8682993948459625e-01 3.5168865323066711e-01 -2.6777866482734680e-01 4.2695125937461853e-01 -2.1841670572757721e-01 1.7863723635673523e-01 3.7315100431442261e-01 2.0550248026847839e-01 -1.1809154413640499e-02 1.9702030718326569e-01 -8.3720482885837555e-02 2.5839453935623169e-01 1.1897973716259003e-01 -8.5797356441617012e-03 2.3508040606975555e-01 -2.0956484973430634e-01 -1.6798643767833710e-01 1.0039592534303665e-01 -1.0349494218826294e+00 -2.7999123930931091e-01 -3.0302917957305908e-01 -8.2590647041797638e-02 -1.1611646413803101e-01 -2.5584140419960022e-01 -2.6304590702056885e-01 -7.4318796396255493e-01 9.4269089400768280e-02 2.4265302717685699e-01 8.5900038480758667e-02 -6.0059177875518799e-01 -1.8440067768096924e-01 -2.5833395123481750e-01 2.3047067224979401e-01 -1.9013467431068420e-01 1.3955278694629669e-01 1.5508195757865906e-01 -3.2392885535955429e-02 4.0104642510414124e-01 -4.7534331679344177e-02 -5.7354211807250977e-02 9.7446024417877197e-02 -1.0801403969526291e-01 8.9979231357574463e-02 -7.4777431786060333e-02 -4.2636919021606445e-01 6.0569755733013153e-02 2.5381454825401306e-01 5.2128958702087402e-01 -3.0432111024856567e-01 -2.0473892986774445e-01 2.8472068905830383e-01 -2.8885531425476074e-01 1.1079853028059006e-01 9.0616168454289436e-03 3.6600160598754883e-01 -3.9782464504241943e-01 -2.8927186131477356e-01 -6.7191618680953979e-01 2.5903868675231934e-01 5.0385189056396484e-01 1.4952780306339264e-01 -2.4412907660007477e-01 -4.2795819044113159e-01 -1.1076062172651291e-01 2.2410887479782104e-01 -1.0194107890129089e-01 2.9157532844692469e-03 2.5733295083045959e-01 -1.2912860512733459e-01 1.8955163657665253e-01 -1.6264727339148521e-02 2.1852999925613403e-01 -3.2368230819702148e-01 -1.9339513778686523e-01 2.5384780764579773e-01 2.8811085224151611e-01 -1.2226441502571106e-01 -9.8514035344123840e-03 3.4260192513465881e-01 3.8853698968887329e-01 -3.1498834490776062e-01 2.8424644470214844e-01 1.6180552542209625e-01 -6.3953295350074768e-02 -3.6317801475524902e-01 1.7902158200740814e-01 -1.2744936347007751e-01 -1.5874497592449188e-01 3.7343105673789978e-01 2.1251446008682251e-01 3.6702835559844971e-01 1.9079694151878357e-01 -6.1739750206470490e-02 7.7561865327879786e-04 5.1131509244441986e-02 1.7126829922199249e-01 5.0366985797882080e-01 -4.2889422178268433e-01 2.0186813175678253e-01 2.2838054597377777e-01 -2.1183061599731445e-01 2.5791749358177185e-01 2.2318239510059357e-01 -1.0196083784103394e-01 2.3406462371349335e-01 -2.3262043297290802e-01 -2.3896265029907227e-01 4.3073421716690063e-01 -2.8390419483184814e-01 2.6895552873611450e-01 5.4942321032285690e-02 8.0664947628974915e-02 -1.1218843609094620e-01 -2.1199031174182892e-01 -2.3858724161982536e-02 -3.5275709629058838e-01 3.8324004411697388e-01 -3.6355618387460709e-02 -4.3429084122180939e-02 4.5169997215270996e-01 9.3594884872436523e-01 -3.4553277492523193e-01 1.9777399301528931e-01 4.3705314397811890e-01 5.0506945699453354e-02 -2.4490360915660858e-01 -2.2846700251102448e-01 -3.9645347744226456e-02 1.9574372470378876e-01 -1.8851025402545929e-01 2.6695314049720764e-01 3.1633462756872177e-02 2.3833112418651581e-01 1.9967077672481537e-01 1.0414727032184601e-01 1.9790713489055634e-01 1.4939045906066895e-01 9.8446309566497803e-02 -4.0021234750747681e-01 3.0542606115341187e-01 -2.0622400939464569e-01 1.6116985678672791e-01 -1.7552737891674042e-01 -3.1819224357604980e-01 3.0925846099853516e-01 -3.4234637022018433e-01 -1.8533053994178772e-01 -2.2706793248653412e-01 -5.5441367626190186e-01 -7.7916219830513000e-02 -4.0618491172790527e-01 -1.7063152790069580e-01 -3.6373105645179749e-01 -1.8617385625839233e-01 -2.1137654781341553e-01 3.3244159072637558e-02 -2.9031333327293396e-01 1.7961108684539795e-01 -1.2134484946727753e-01 8.3766378462314606e-02 6.2997490167617798e-02 -7.9057492315769196e-02 -1.4804789423942566e-01 3.3183842897415161e-01 9.6461355686187744e-02 -1.5705427154898643e-02 1.6951288282871246e-01 1.2852376699447632e-01 1.1118414998054504e-01 1.3504122197628021e-01 3.8452854752540588e-01 -3.3362913131713867e-01 1.9777862727642059e-01 -3.7996909022331238e-01 -1.3621111214160919e-01 -1.5292605757713318e-01 -1.0123663395643234e-01 -3.7737563252449036e-01 6.7127838730812073e-02 -1.2517671287059784e-01 -3.4763523936271667e-01 -2.0209129154682159e-01 1.6809281706809998e-01 2.9135823249816895e-01 -3.3969345688819885e-01 1.5556713333353400e-03 -3.7936294078826904e-01 1.4455294609069824e-01 3.1380450725555420e-01 -2.0390953123569489e-01 1.6364362835884094e-01 -1.8984009325504303e-01 -9.6386913210153580e-03 9.3724101781845093e-02 1.5841551125049591e-01 3.6578628420829773e-01 3.6673685908317566e-01 -4.4271057844161987e-01 6.9138669967651367e-01 3.3477798104286194e-01 -2.1134233474731445e-01 2.1432934701442719e-01 1.6499948501586914e-01 2.3054330050945282e-01 3.4311762452125549e-01 -1.0619722306728363e-01 2.5000068545341492e-01 3.2123324275016785e-01 -1.1806187778711319e-01 2.1107727289199829e-01 1.3747568428516388e-01 3.0656722187995911e-01 3.2202288508415222e-01 -4.5342895388603210e-01 1.1409555561840534e-02 -1.1550568342208862e+00 2.3980688303709030e-02 -1.0508819669485092e-01 4.4205731153488159e-01 2.4054372310638428e-01 -2.3525285720825195e-01 -3.9394799619913101e-02 -3.6204358935356140e-01 -2.4738544598221779e-02 -3.6239483952522278e-01 1.5029089525341988e-02 3.2344043254852295e-01 1.0141296684741974e-01 -8.4979441016912460e-03 1.2480889260768890e-01 -1.3770332932472229e-01 -1.1993431299924850e-01 -7.6336786150932312e-02 5.3827452659606934e-01 -1.3359681703150272e-02 -1.1097414046525955e-01 9.3554817140102386e-02 1.2950053215026855e+00 -2.8746056556701660e-01 -1.5027080476284027e-01 -1.0486194491386414e-01 3.5159292817115784e-01 -3.4316468238830566e-01 1.5898960828781128e-01 -1.7917802929878235e-01 1.5361826121807098e-01 4.0089300274848938e-01 2.9697713255882263e-01 -1.2554555200040340e-02 -3.0660351738333702e-02 2.3124340921640396e-02 -1.1179546266794205e-01 1.4239163696765900e-01 2.1350234746932983e-01 3.8227060437202454e-01 -3.0069679021835327e-01 -2.0280947908759117e-02 -6.2537556514143944e-03 2.2095972299575806e-01 1.0160233825445175e-02 -5.7834092527627945e-02 1.6240838170051575e-01 -3.7850356101989746e-01 -2.1210286766290665e-02 -2.9182082414627075e-01 3.1263396143913269e-01 -1.8308352679014206e-02 3.5281755030155182e-02 -1.1362011730670929e-01 -1.9662638008594513e-01 4.3909189105033875e-01 7.5091600418090820e-02 6.5645700693130493e-01 -3.7564679980278015e-01 -6.5160983800888062e-01 -3.9831534028053284e-02 1.5029455423355103e+00 -3.0530482530593872e-01 -2.1797901019454002e-02 -1.2452615052461624e-01 2.4357438087463379e-01 -3.7328410148620605e-01 -1.2269987910985947e-01 -4.7349971532821655e-01 1.9384825229644775e-01 -4.8351228237152100e-01 1.3458532094955444e-01 -5.0596501678228378e-02 -4.4914275407791138e-02 -6.1319357156753540e-01 -1.7596542835235596e-01 1.0339572429656982e+00 -6.3073791563510895e-02 -1.6843438148498535e-01 5.4821964353322983e-02 -2.0612092688679695e-02 -1.3925497233867645e-01 -4.9947768449783325e-02 1.2550884485244751e+00 2.6632715016603470e-02 -5.6130754947662354e-01 4.6176424622535706e-01 1.4476559162139893e+00 -1.2280561495572329e-03 1.8605577945709229e-01 -4.0422210097312927e-01 1.7516833543777466e-01 1.9517113268375397e-01 5.6009825319051743e-02 -1.2475059181451797e-01 1.6855898499488831e-01 -7.0699721574783325e-02 2.7734687924385071e-01 3.5181111097335815e-01 -4.6793663501739502e-01 4.3110600113868713e-01 2.4422173202037811e-01 1.4588072896003723e-01 -1.9544994458556175e-02 1.8187341094017029e-01 -4.5389477163553238e-02 -2.9313609004020691e-01 2.8943520039319992e-02 4.0612924844026566e-02 -4.8269382119178772e-01 -2.3356851935386658e-01 -2.8359245508909225e-02 3.9215415716171265e-01 -2.8133106231689453e-01 2.1218609809875488e-01 -3.5947766900062561e-01 -3.8181934505701065e-02 -7.6838843524456024e-02 -7.6441174745559692e-01 1.6694162786006927e-01 1.2407468259334564e-01 1.0212847590446472e-01 7.1386985480785370e-02 -9.3726098537445068e-02 -1.5167795121669769e-01 -3.0003692954778671e-02 3.9796364307403564e-01 3.3669346570968628e-01 1.9786927103996277e-01 2.0180253684520721e-01 8.1025637686252594e-02 -7.1079342160373926e-04 -2.5620505213737488e-01 2.6892310380935669e-01 4.2019810527563095e-02 3.3940154314041138e-01 3.0331143736839294e-01 -2.5974979996681213e-01 -7.8448005020618439e-02 -9.7257671877741814e-03 -2.3383004963397980e-01 1.1211178451776505e-01 1.3167031109333038e-01 -1.3623456656932831e-01 -7.1365505456924438e-01 -1.6974006593227386e-01 5.2433985471725464e-01 -4.6833440661430359e-02 1.6350710391998291e-01 -3.4445118159055710e-02 -4.2693272233009338e-01 1.6525729000568390e-01 -2.4987572431564331e-01 2.3750600218772888e-01 -2.0212370157241821e-01 -2.8301721811294556e-01 4.3360959738492966e-02 -5.7472265325486660e-04 3.9384561777114868e-01 -2.8726320713758469e-02 3.3713009953498840e-01 -1.9887562096118927e-01 -1.0385540127754211e-01 -2.5335116311907768e-02 -2.5106960535049438e-01 -8.5895277559757233e-02 -1.6837494075298309e-01 -4.6555104851722717e-01 -2.6800096035003662e-02 -2.2341069579124451e-01 6.0211354494094849e-01 -5.7833507657051086e-02 1.4025771617889404e-01 -1.5395393967628479e-01 -6.8147820234298706e-01 -3.1493660062551498e-03 1.8962864577770233e-01 -2.7597883343696594e-01 -9.7956848144531250e-01 1.3946849107742310e-01 1.2705510854721069e-01 -2.7014556527137756e-01 -1.0856515169143677e-01 5.5401504039764404e-02 -1.1046569794416428e-01 -2.4452880024909973e-01 -1.0931864380836487e-01 5.7625043392181396e-01 1.7082655429840088e-01 -2.3803214728832245e-01 -4.4262100011110306e-02 4.6034875512123108e-01 -3.3170539140701294e-01 1.9194262102246284e-02 -4.1229891777038574e-01 3.1758674979209900e-01 2.5118699669837952e-01 -1.2860207259654999e-01 -1.5741389989852905e-01 -1.0294854640960693e-01 2.2190763056278229e-01 3.6302369832992554e-01 4.0372231602668762e-01 4.3091410398483276e-01 2.9747533798217773e-01 3.1741899251937866e-01 1.8300016224384308e-01 2.5162190198898315e-01 -5.8143120259046555e-02 1.2863779067993164e-01 2.5564453005790710e-01 -7.0166304707527161e-02 -4.6153172850608826e-01 7.0487439632415771e-02 -2.9064753651618958e-01 1.5837591886520386e-01 -4.4170755892992020e-02 3.0930161476135254e-01 1.3172517716884613e-01 3.4539532661437988e-01 -9.1795116662979126e-02 1.8718481063842773e-01 7.2708621621131897e-02 2.3285429179668427e-01 3.7978968024253845e-01 5.0023429095745087e-02 4.5485478639602661e-01 1.8347018957138062e-01 -5.9700614213943481e-01 -5.0070005655288696e-01 8.8031357526779175e-01 5.0190019607543945e-01 9.0042430162429810e-01 -1.3991504907608032e-02 -7.7515477314591408e-03 -1.1392270773649216e-01 -1.9173122942447662e-01 -2.7460265159606934e-01 -1.7680455744266510e-01 -1.4000059366226196e+00 3.0639717355370522e-02 3.4701816737651825e-02 -6.8504624068737030e-02 -2.2176074981689453e+00 9.0631768107414246e-02 9.0487980842590332e-01 -7.0681840181350708e-02 9.7293347120285034e-02 3.1323665380477905e-01 -2.1278738975524902e-01 3.0866298079490662e-01 -5.9173032641410828e-02 -1.1278944015502930e+00 -9.7247296944260597e-03 9.2605203390121460e-02 2.3691709339618683e-01 -1.7272595167160034e+00 -2.3585158586502075e-01 -3.0699697136878967e-01 1.0095694661140442e-01 -9.3897275626659393e-02 -6.2430877238512039e-02 9.2378787696361542e-02 -3.3701661229133606e-01 3.3988177776336670e-01 -1.8655274808406830e-01 -1.7091660201549530e-01 3.0090248584747314e-01 2.3279251158237457e-01 -3.6916968226432800e-01 -1.0849256813526154e-01 3.4604135435074568e-03 -3.0137541890144348e-01 -3.4413373470306396e-01 -2.6923190802335739e-02 3.3465448021888733e-01 -4.3382763862609863e-02 -2.2833496332168579e-01 2.9347574710845947e-01 -1.6001513600349426e-01 1.7674528062343597e-01 -4.1307892650365829e-02 -1.2255530804395676e-01 1.5633891522884369e-01 4.7372043132781982e-01 -3.8979843258857727e-01 2.1978190541267395e-01 8.6342915892601013e-02 3.2367220520973206e-01 1.1403342336416245e-01 -1.7067621648311615e-01 4.5611601322889328e-02 -5.6065964698791504e-01 1.4114027842879295e-02 -4.5959338545799255e-01 4.7757053375244141e-01 -1.4364704489707947e-01 -2.1916015446186066e-01 4.7858055680990219e-02 -2.1417422592639923e-01 -1.3688603043556213e-01 -3.5926401615142822e-01 2.0118589699268341e-01 2.9061809182167053e-03 -8.0398350954055786e-01 -8.3885602653026581e-02 2.6374885346740484e-03 6.3382796943187714e-02 -6.0067623853683472e-01 1.6787381470203400e-01 2.2469054907560349e-02 8.0515474081039429e-02 -3.0062103271484375e-01 1.3248147070407867e-01 -6.0613971203565598e-02 -2.5672921538352966e-01 -2.8818523883819580e-01 5.3034937381744385e-01 -1.0517463088035583e-01 3.7377750873565674e-01 8.7476156651973724e-02 1.1906299591064453e+00 5.8846600353717804e-02 -5.5468726158142090e-01 -2.0727041363716125e-01 2.4799153208732605e-01 -1.4112929999828339e-01 1.7551624774932861e-01 9.6938095986843109e-02 3.6445167660713196e-01 9.6581801772117615e-02 2.8880763053894043e-01 -2.3516441881656647e-01 -4.0247306227684021e-02 3.8563662767410278e-01 1.5259681642055511e-01 -2.9677122831344604e-02 2.0954200625419617e-01 1.9993512332439423e-01 -2.1391555666923523e-02 -2.0271365344524384e-01 -1.1376538872718811e-01 -1.6758053004741669e-01 1.6282603144645691e-01 -5.8563672937452793e-03 3.6994394659996033e-01 1.3993984460830688e-01 -3.0824956297874451e-01 -2.9668784141540527e-01 8.1445938348770142e-01 1.0615905374288559e-01 2.4954752624034882e-01 -7.8187011182308197e-02 2.8330397605895996e-01 -3.2780131697654724e-01 2.4481290951371193e-02 -5.3644758462905884e-01 -3.0241048336029053e-01 -6.3192747533321381e-02 2.2003488242626190e-01 -9.0788006782531738e-01 5.6363302469253540e-01 -6.4748547971248627e-02 -9.7443116828799248e-03 -8.3868131041526794e-02 1.0179258882999420e-01 -4.4179055839776993e-02 -3.8305574655532837e-01 -8.0343775451183319e-02 5.3844332695007324e-01 2.7628648281097412e-01 5.8312151581048965e-02 4.3704822659492493e-01 4.5524409413337708e-01 9.3625679612159729e-02 7.3942892253398895e-02 -1.3015216588973999e-01 2.3297229409217834e-01 -1.7602470517158508e-01 -2.1385401487350464e-01 8.6592048406600952e-02 -3.8248687982559204e-01 -1.1971794068813324e-01 -2.2330968081951141e-01 2.1285223960876465e-01 2.9483118653297424e-01 -3.1424817442893982e-01 -1.8403011560440063e-01 4.4770771265029907e-01 -1.3099999725818634e-01 2.1159574389457703e-01 2.0373851060867310e-01 1.3566879928112030e-01 4.3929633498191833e-01 -4.4887173175811768e-01 2.6743024587631226e-01 -5.3672708570957184e-02 7.4179418385028839e-02 -1.0000360012054443e-01 1.2821240425109863e+00 -1.4592313766479492e-01 -7.4373222887516022e-02 -8.6079560220241547e-02 -5.2603315562009811e-02 -2.7988642454147339e-01 -2.8322723507881165e-01 -1.1053638905286789e-01 5.2760634571313858e-02 1.5347899496555328e-01 1.8610441684722900e-01 -2.7857810258865356e-01 -2.9282758012413979e-02 -3.2739943265914917e-01 -4.7615984082221985e-01 1.9824919104576111e-01 -1.5365134924650192e-02 8.8779315352439880e-02 -8.5626000165939331e-01 7.1385949850082397e-02 1.9592306017875671e-01 -1.4451879262924194e-01 -1.7571109533309937e-01 1.3952849805355072e-01 -1.9317515194416046e-02 1.5460254251956940e-01 -5.9480406343936920e-02 -1.5199063718318939e-01 
      </Weights>
      <Biases rows="128" cols="1">
        -1.1437447369098663e-01 -4.2325130105018616e-01 -2.6166735216975212e-02 -5.4767441004514694e-02 -2.2166250273585320e-02 6.4258337020874023e-02 -1.8201746046543121e-02 -3.3852644264698029e-02 -4.0530838072299957e-02 -3.6036092787981033e-02 -8.2825860008597374e-03 1.7480751872062683e-01 -3.5509582608938217e-02 1.2220971286296844e-01 6.0934373177587986e-03 -5.5888157337903976e-02 -4.1476565599441528e-01 7.7560059726238251e-02 -5.5098658800125122e-01 -5.5040113627910614e-02 2.9866272211074829e-01 -1.2328774668276310e-02 7.9995645210146904e-03 -5.8122988790273666e-02 2.1054971218109131e-01 -3.2466050982475281e-01 1.5115527808666229e-01 6.6897004842758179e-02 -1.2980632483959198e-02 -2.3352396674454212e-03 -6.7715302109718323e-02 1.3039276003837585e-01 1.2594360858201981e-02 -5.0504112243652344e-01 -1.3799199461936951e-01 -4.0576726198196411e-02 -5.7020783424377441e-03 -4.1451448202133179e-01 -1.9463945645838976e-03 4.9630634486675262e-02 3.8607299327850342e-02 -2.2031542658805847e-01 5.0360586494207382e-02 1.0516718029975891e-01 1.2777277827262878e-01 -3.6683735251426697e-01 -5.7667888700962067e-02 -2.5136768817901611e-02 3.4262295812368393e-02 1.0280138254165649e-01 -5.0336760282516479e-01 -7.7559985220432281e-02 -5.1165890693664551e-01 7.1275627613067627e-01 -1.5925769507884979e-01 7.1444794535636902e-02 4.3341436982154846e-01 -2.8289872407913208e-01 -4.9203044176101685e-01 -1.1082862038165331e-03 4.2596852779388428e-01 7.1781329810619354e-02 1.0934875346720219e-02 6.1340022832155228e-02 2.9456214979290962e-02 -3.6050304770469666e-03 -4.9433644860982895e-02 0.0000000000000000e+00 -1.2935726344585419e-01 1.1215086560696363e-03 -1.7569051124155521e-04 7.2257572412490845e-01 2.3930574953556061e-01 8.3515837788581848e-02 -2.4621073901653290e-01 9.3377359211444855e-02 4.8174884170293808e-02 -2.5631031394004822e-01 7.1556895971298218e-02 -9.1070784255862236e-03 -4.4524133205413818e-01 -4.8625990748405457e-02 -1.7858569324016571e-01 -1.5558348596096039e-01 2.2116616368293762e-02 1.5984605997800827e-02 3.0169593170285225e-02 1.4155904948711395e-01 -1.1966621503233910e-02 1.2098234146833420e-03 -1.1024473607540131e-01 2.3703023325651884e-03 -1.1385831236839294e-01 2.4537175893783569e-01 -1.3806218281388283e-02 -3.4610841423273087e-02 3.5783660411834717e-01 -1.1369882151484489e-02 1.6335869207978249e-02 5.6824773550033569e-01 -2.5177505612373352e-01 5.9586834907531738e-01 3.1881260871887207e-01 -1.4373584091663361e-01 8.6074955761432648e-02 5.2083365619182587e-02 6.2829844653606415e-02 5.8995634317398071e-02 -4.3672570586204529e-01 7.6405793428421021e-02 2.4026891216635704e-02 6.7406907677650452e-02 3.7389466166496277e-01 -9.0836501121520996e-01 -6.0330533981323242e-01 -4.4358093291521072e-03 1.1583694256842136e-02 2.9839900135993958e-01 -4.0817660093307495e-01 4.4317725300788879e-01 4.1321232914924622e-02 -1.3346225023269653e-02 -2.9742980003356934e-01 2.2136665880680084e-01 -1.5184858813881874e-02 5.6490749120712280e-01 -9.9218286573886871e-02 4.2666117660701275e-03 
      </Biases>
    </Layer>
    <Layer ActivationFunction="1">
      <Weights rows="64" cols="128">
        3.8920383900403976e-02 -5.7096045464277267e-02 -3.6516964435577393e-02 -1.2066922336816788e-01 6.4222924411296844e-02 -1.2102823704481125e-01 3.0493425205349922e-02 3.5169601440429688e-02 -4.8887196928262711e-02 2.7869403362274170e-01 -6.8038485944271088e-02 -7.4842385947704315e-02 8.0464527010917664e-02 -2.4245403707027435e-01 5.6172825396060944e-02 5.6020416319370270e-02 9.6413426101207733e-02 -3.7777740508317947e-02 3.9209732413291931e-01 1.3550613820552826e-01 -2.0802494883537292e-01 -1.0539770871400833e-01 2.1825950592756271e-02 -1.2928812205791473e-01 -2.8853351250290871e-02 -1.2532445788383484e-01 -1.7659540474414825e-01 -7.0442929863929749e-02 2.1903922781348228e-02 9.9194310605525970e-02 2.2477073967456818e-01 -1.9068391621112823e-01 2.9505881667137146e-01 3.3053591847419739e-01 2.1078230440616608e-01 2.8787693381309509e-01 -8.3814792335033417e-02 -1.2394177913665771e-01 -2.7598870918154716e-02 -8.1372447311878204e-02 -1.8351568281650543e-01 -2.3955075070261955e-02 -1.1191783845424652e-01 -1.8090009689331055e-02 -1.1191757023334503e-01 -2.2784672677516937e-02 -6.0544285923242569e-02 3.6716688424348831e-02 2.2292576730251312e-01 -1.2528707087039948e-01 -3.5089954733848572e-01 3.1644318252801895e-02 -1.3331985473632812e-01 -3.6763843894004822e-01 1.6979031264781952e-02 -1.3858035206794739e-01 -2.4232989549636841e-01 1.6479570418596268e-02 1.8133372068405151e-01 -1.2257276475429535e-01 -3.4050050377845764e-01 1.5329916961491108e-02 3.9695963263511658e-02 1.1899454146623611e-01 1.1373399943113327e-01 1.5756099019199610e-03 -1.1797044426202774e-01 1.3038931647315621e-03 -1.8649180233478546e-01 -5.8779131621122360e-02 5.7430703192949295e-02 -4.5235267281532288e-01 -5.9555675834417343e-02 6.0000125318765640e-02 -2.5647921487689018e-02 -3.6265373229980469e-02 9.6721871523186564e-04 -2.4693515896797180e-01 -6.5805487334728241e-02 3.8137767463922501e-02 4.6164113283157349e-01 -5.9051852673292160e-02 2.5169265270233154e-01 2.6304396986961365e-01 -1.0732050985097885e-01 1.0236652195453644e-01 -1.5470091998577118e-01 3.4096848219633102e-02 -1.8329082429409027e-01 1.2384951114654541e-01 5.2238530479371548e-03 3.6155767738819122e-02 -1.9381688535213470e-01 -7.0561751723289490e-02 -6.8932838737964630e-02 1.2625409662723541e-01 9.6922740340232849e-03 1.3553696870803833e-01 -5.5798735469579697e-02 1.6348509490489960e-01 1.8748150765895844e-01 -5.1650285720825195e-02 -8.5893169045448303e-02 -2.0884808897972107e-01 1.6207310557365417e-01 -4.8488620668649673e-02 9.1705307364463806e-02 -1.2036196142435074e-01 -2.9044038057327271e-01 4.2840231209993362e-02 8.5299789905548096e-02 6.9533206522464752e-02 8.5000157356262207e-02 6.5164905786514282e-01 -1.3269257545471191e-01 1.1455410718917847e-01 -9.6222288906574249e-02 -8.7781481444835663e-02 -7.9331330955028534e-02 1.4146174490451813e-01 1.2001164257526398e-01 -1.9379386678338051e-02 2.2024345397949219e-01 8.3430588245391846e-02 1.3419535756111145e-01 2.5541034340858459e-01 -2.5419773533940315e-02 2.5018133223056793e-02 -3.4678068011999130e-02 1.3579191267490387e-01 -1.0755828022956848e-01 -1.2400463223457336e-01 5.5145338177680969e-02 3.7315148860216141e-02 6.3580594956874847e-02 -1.0841139405965805e-01 1.0131045430898666e-01 1.2456939555704594e-02 -9.4062753021717072e-02 7.3348246514797211e-02 1.8993699923157692e-02 -1.0542533546686172e-01 2.6224007830023766e-02 6.0437511652708054e-02 -6.1460506170988083e-02 -2.7533533051609993e-02 -6.7183539271354675e-02 7.6905637979507446e-02 -1.1327145248651505e-01 -9.9742487072944641e-02 -1.1337219923734665e-01 -4.5035172253847122e-02 -2.8902137652039528e-02 1.0728719830513000e-01 -5.3047910332679749e-02 7.5416904874145985e-03 4.6911321580410004e-02 -8.4164075553417206e-02 9.5768041908740997e-02 1.3949552550911903e-02 9.7181327641010284e-02 7.7737411484122276e-03 -4.0234174579381943e-02 2.7369018062017858e-04 9.2442087829113007e-02 4.0639232844114304e-02 -1.4723593369126320e-02 7.4850231409072876e-02 4.9323219805955887e-02 1.0007735341787338e-01 5.2942771464586258e-02 -5.0404895097017288e-02 4.0818341076374054e-02 -2.3027793504297733e-03 8.2418330013751984e-02 -2.2580662742257118e-02 -1.1055085062980652e-01 -5.6500181555747986e-02 -8.3648443222045898e-02 -1.2164467945694923e-02 2.1496428176760674e-02 2.7881248388439417e-03 -1.0862061381340027e-01 9.5884718000888824e-02 -6.8794578313827515e-02 -1.2952987104654312e-02 -7.9202376306056976e-02 -5.3791366517543793e-02 2.4598508607596159e-03 -1.8740586936473846e-02 3.3418692648410797e-02 -1.1251010000705719e-01 1.0604883544147015e-02 1.0137253254652023e-01 -1.4205204322934151e-02 -7.5265079736709595e-02 -1.1690434813499451e-01 3.9249952882528305e-02 3.6427658051252365e-02 -1.4781394600868225e-01 5.2630566060543060e-02 -1.5235338360071182e-03 -1.5753790736198425e-02 3.6149131483398378e-04 -6.5642744302749634e-02 -5.3006038069725037e-02 8.1668041646480560e-02 -8.3096690475940704e-02 -2.2934691980481148e-02 5.8294963091611862e-03 9.3038968741893768e-02 3.0259188264608383e-02 5.1173660904169083e-02 6.6182330250740051e-02 -6.2457736581563950e-02 -1.2155024707317352e-01 -9.6121229231357574e-02 1.2101116776466370e-01 -9.0329974889755249e-02 -2.0775308832526207e-02 1.1171043664216995e-01 9.5407500863075256e-02 -1.2583261728286743e-01 3.3619962632656097e-02 -1.1014125496149063e-01 -6.0222733765840530e-02 -8.4845229983329773e-02 -5.1002454012632370e-02 1.1001252382993698e-01 2.4832865223288536e-02 7.7106305398046970e-03 -2.8324509039521217e-02 6.1896447092294693e-02 2.1722644567489624e-02 -5.5667556822299957e-02 -1.8158067017793655e-02 7.4075981974601746e-02 -5.6542892707511783e-04 -1.2705753743648529e-01 -7.6572395861148834e-02 8.0578379333019257e-02 -9.8139151930809021e-02 5.8311056345701218e-02 5.8706048876047134e-02 6.8366579711437225e-02 7.7334381639957428e-02 -9.0480141341686249e-02 -1.0344637185335159e-01 9.0070761740207672e-02 1.0692708939313889e-01 9.8993860185146332e-02 9.5072910189628601e-02 3.7432409822940826e-02 -2.7146751061081886e-02 -3.6618012934923172e-02 9.7462192177772522e-02 -3.0765993520617485e-02 9.1451201587915421e-03 6.7774574272334576e-03 -1.2044745683670044e-01 3.7849076092243195e-02 7.3427401483058929e-02 1.0438412427902222e-01 2.7501346543431282e-02 2.3987874388694763e-02 -1.0018483549356461e-01 -8.0699242651462555e-02 8.5111431777477264e-02 -6.8992324173450470e-02 7.8393302857875824e-02 2.0439896732568741e-02 1.4649730920791626e-01 1.4354556798934937e-01 3.6072075366973877e-02 1.1292840540409088e-01 1.4090883545577526e-02 -9.8141260445117950e-02 -3.9120886474847794e-02 9.7304314374923706e-02 1.3763482868671417e-01 6.5946228802204132e-02 3.7130985409021378e-02 1.2335489504039288e-02 -1.4344076812267303e-01 1.8541082739830017e-02 -1.0289335250854492e-01 1.4298366010189056e-01 -2.2881556302309036e-02 1.2383856624364853e-01 1.0876086354255676e-01 1.0752864927053452e-01 -6.7147812806069851e-03 1.1954531073570251e-01 -5.5140882730484009e-02 5.2934639155864716e-02 1.1207459867000580e-01 5.4419815540313721e-02 -7.1094832383096218e-03 -5.9784106910228729e-02 4.5608669519424438e-02 -3.9709871634840965e-03 3.8151066750288010e-02 -1.2262178957462311e-01 -6.3574090600013733e-03 -1.5988042578101158e-02 -2.1295372396707535e-02 -3.3946216106414795e-02 6.8326324224472046e-02 1.8326383829116821e-01 -7.4618890881538391e-02 1.7315736413002014e-01 1.5258009731769562e-01 -4.7540806233882904e-02 1.0010077059268951e-01 -7.5562603771686554e-02 1.0243794322013855e-01 4.9204323440790176e-02 8.2909144461154938e-02 1.0131997615098953e-01 -2.6756219565868378e-02 9.2304028570652008e-02 -7.5646281242370605e-02 -6.4881131052970886e-02 8.4974721074104309e-02 -3.6208894103765488e-02 -4.6138286590576172e-02 8.3283642306923866e-03 -1.4377920329570770e-01 -2.4197651073336601e-02 -7.3296345770359039e-02 5.7153888046741486e-02 -8.3141706883907318e-02 -3.1225206330418587e-02 2.1377647295594215e-02 -1.3812565803527832e-01 5.0984952598810196e-02 4.8735585063695908e-02 -1.1048579961061478e-01 1.1212319135665894e-01 -8.0046996474266052e-02 -8.9652396738529205e-02 6.2445327639579773e-02 -3.1331676989793777e-02 -4.9927845597267151e-02 -3.9658151566982269e-02 2.3019576445221901e-02 8.0379739403724670e-02 5.6164927780628204e-02 1.2832814455032349e-01 -1.0860175639390945e-01 1.1834312230348587e-01 1.1613536626100540e-01 -1.2884089350700378e-01 -9.7138382494449615e-02 -1.9107883796095848e-02 -9.4733245670795441e-02 4.2850181460380554e-02 -3.2344948500394821e-02 8.7488666176795959e-02 1.0406743735074997e-01 7.9293385148048401e-02 -6.3283815979957581e-02 -6.2963098287582397e-02 5.9949070215225220e-02 1.4115991070866585e-03 -1.3795152306556702e-02 1.1024637147784233e-02 -1.0508798062801361e-01 1.2858375906944275e-02 2.0625239610671997e-01 2.1765656769275665e-02 1.1485428363084793e-01 9.5027714967727661e-02 4.3847691267728806e-02 7.5020529329776764e-02 -5.6546874344348907e-02 4.6965919435024261e-02 9.9129125475883484e-02 1.4128728769719601e-02 -9.1207072138786316e-02 2.2709699347615242e-02 6.4730062149465084e-03 1.5382020175457001e-01 7.9782731831073761e-02 -3.7151429802179337e-02 -5.5015958845615387e-02 1.1395463347434998e-01 2.9526900500059128e-02 -8.5608206689357758e-02 3.7745248526334763e-02 -1.1165548115968704e-01 -7.5492836534976959e-02 5.7186413556337357e-02 -3.3782567828893661e-02 -1.0118590295314789e-01 -5.7059686630964279e-02 -2.5138262659311295e-02 1.0877379029989243e-01 -9.8889403045177460e-02 -3.0549729126505554e-04 -4.5570567250251770e-02 9.9188551306724548e-02 7.8759752213954926e-02 8.7357491254806519e-02 9.7656495869159698e-02 -1.3574411161243916e-02 -7.6555795967578888e-02 -9.6571691334247589e-02 -2.7529554441571236e-02 -3.4737918525934219e-02 -8.6882479488849640e-02 -9.5659762620925903e-02 9.3247987329959869e-02 9.1018639504909515e-02 1.0084317997097969e-02 -3.0896255746483803e-02 -5.9619933366775513e-02 -3.7179771810770035e-02 4.0247969329357147e-02 -7.3260612785816193e-02 1.7836980521678925e-02 2.5573434308171272e-02 -6.5465874969959259e-02 7.8354090452194214e-02 3.9891473948955536e-02 -9.0512916445732117e-02 -7.8217303380370140e-03 7.1691468358039856e-02 1.0654316097497940e-01 -9.8011538386344910e-02 -7.4046172201633453e-02 -9.8944269120693207e-02 1.1922205984592438e-01 -9.0416617691516876e-02 -3.2513432204723358e-02 -3.0207907781004906e-02 -8.9488744735717773e-02 -4.2515121400356293e-02 -8.0104947090148926e-02 8.0763556063175201e-02 6.7592516541481018e-02 7.5769727118313313e-03 -1.0580132901668549e-01 5.9274729341268539e-02 -1.0773925483226776e-01 -3.7219703197479248e-02 1.2052301317453384e-01 -2.6892263442277908e-02 -9.3050748109817505e-02 -3.6357372999191284e-02 3.2375074923038483e-02 7.1867048740386963e-02 -7.8416429460048676e-02 1.1528646200895309e-01 -1.1165608651936054e-02 -8.5772305727005005e-02 -8.2541249692440033e-02 8.5112459957599640e-02 -9.3022309243679047e-02 4.2604494839906693e-02 -1.2113069742918015e-01 7.2702631354331970e-02 -4.6571396291255951e-02 9.5570236444473267e-02 -5.4767955094575882e-02 6.3381120562553406e-02 5.3320955485105515e-02 2.5071242824196815e-02 3.4122195094823837e-02 -1.3232300058007240e-02 -9.2158265411853790e-02 1.0324513167142868e-01 8.2478158175945282e-02 1.0984345525503159e-01 5.7476172223687172e-03 -9.0431813150644302e-03 5.0372675061225891e-02 7.7063806354999542e-02 4.2215697467327118e-02 -1.4857181347906590e-02 7.9299166798591614e-02 -7.0955790579319000e-02 -3.5937428474426270e-02 1.9369505345821381e-02 4.6159245073795319e-02 4.2888015508651733e-02 9.2909432714805007e-04 -2.5037735700607300e-02 -9.6013322472572327e-02 -5.4679188877344131e-02 5.5250730365514755e-02 1.1981213837862015e-01 -4.3805590830743313e-03 6.4582005143165588e-02 3.5172726958990097e-02 9.8679751157760620e-02 1.0672594606876373e-01 -9.7543485462665558e-03 6.5415665507316589e-02 1.0427547246217728e-01 1.0106330737471581e-02 -1.3928072527050972e-02 -1.8820943310856819e-02 7.3240235447883606e-02 8.8769540190696716e-02 -1.1569997668266296e-01 1.2740705907344818e-01 1.2562768161296844e-01 -6.8635672330856323e-02 -7.6031215488910675e-02 4.8992447555065155e-02 9.8885931074619293e-02 -9.2620640993118286e-02 -5.1336772739887238e-02 3.7180509418249130e-02 -2.4278836324810982e-02 -1.5288480557501316e-02 8.3493560552597046e-02 -6.5209485590457916e-02 -1.4199918508529663e-01 -2.4454656988382339e-02 -1.0050290822982788e-01 9.9029146134853363e-02 -1.0571832954883575e-01 6.6085547208786011e-02 -2.0086884498596191e-01 6.6045061685144901e-03 1.1005877517163754e-02 3.7304677069187164e-02 -1.1205025017261505e-02 1.2012048065662384e-01 -2.6690918952226639e-02 -1.3000430166721344e-01 -7.7562421560287476e-02 1.2746264040470123e-01 7.0870198309421539e-02 -2.1164375543594360e-01 -2.8915539383888245e-02 -6.1591215431690216e-02 7.7573440968990326e-02 -5.6803997606039047e-02 6.3346773386001587e-02 -1.9932383298873901e-01 -1.4133433997631073e-01 -1.1950531601905823e-01 -5.2117511630058289e-02 -4.5904319733381271e-02 7.9363264143466949e-02 9.1298006474971771e-02 1.6819588840007782e-01 -1.0386329889297485e-01 8.0427430570125580e-02 -6.7323264665901661e-03 3.9050061255693436e-02 8.6129859089851379e-02 1.2850023806095123e-01 -8.7128423154354095e-02 -1.0299026034772396e-02 6.1000041663646698e-02 -9.2124804854393005e-02 -1.6231304034590721e-02 -8.0489935353398323e-03 -1.8362763524055481e-01 -1.6175925731658936e-01 -8.9151039719581604e-02 -1.6800628602504730e-01 1.3552096486091614e-01 -1.4158909022808075e-01 -3.6690577864646912e-02 8.1974104046821594e-02 -3.8736999034881592e-02 3.2453857362270355e-02 4.0704715996980667e-02 9.9397584795951843e-02 -1.9896367564797401e-02 6.4743503928184509e-02 9.7855508327484131e-02 -3.3024132251739502e-02 1.1206198483705521e-01 -2.4744350463151932e-02 -2.6102352887392044e-02 -4.2332332581281662e-02 -1.2269061058759689e-02 -8.2419969141483307e-02 2.7502787113189697e-01 -1.6293403506278992e-01 2.5018932297825813e-02 1.0073474794626236e-01 2.7062714099884033e-02 7.3298662900924683e-02 5.2156079560518265e-02 -4.1524965316057205e-02 -4.7445420175790787e-02 2.6181023567914963e-02 -5.0179053097963333e-02 7.4906811118125916e-02 -4.4176980853080750e-02 4.0153302252292633e-02 -2.0904503762722015e-01 1.8437986075878143e-01 -1.1127121001482010e-01 4.5317348092794418e-02 3.1905323266983032e-02 -4.0749511681497097e-03 6.2730938196182251e-02 -2.1642702817916870e-01 2.2168220952153206e-02 -1.9624240696430206e-01 1.9142667949199677e-01 3.7301812320947647e-02 -5.9121444821357727e-02 2.5918079540133476e-02 1.2310710735619068e-02 9.3480281531810760e-02 -2.0533632487058640e-02 -1.8820375204086304e-02 -1.2989385426044464e-01 -8.7082991376519203e-03 8.0330841243267059e-02 1.0390767455101013e-01 8.6462274193763733e-02 1.9116750359535217e-01 -4.8407997936010361e-02 -8.7057270109653473e-02 2.9325587674975395e-02 6.2445566058158875e-02 -3.0743691325187683e-01 -1.2463743984699249e-01 1.1105556786060333e-01 -1.5667913854122162e-01 -1.4488267898559570e-01 1.6575165092945099e-01 -5.2945602685213089e-02 5.4514106363058090e-02 1.5537817776203156e-01 1.9164945185184479e-01 -1.2626214325428009e-01 7.8571423888206482e-02 -1.2598794698715210e-01 -1.0530105233192444e-01 -9.4870209693908691e-02 -9.2249408364295959e-02 1.1192735284566879e-01 -6.9626055657863617e-02 -6.9250479340553284e-02 -9.8840013146400452e-02 1.2387868016958237e-02 -1.8217490985989571e-02 1.0371880233287811e-01 6.2903948128223419e-02 -7.6077647507190704e-02 -1.0617887973785400e-01 -1.1628336459398270e-01 -8.0210916697978973e-02 6.3969932496547699e-02 -1.2800483405590057e-01 8.2457460463047028e-02 -9.1895297169685364e-02 1.1207404732704163e-01 -6.9077879190444946e-02 -1.1846008151769638e-01 -4.3821003288030624e-02 -3.9953328669071198e-02 -4.8078734427690506e-02 8.0685183405876160e-02 -4.7942422330379486e-02 -4.6112705022096634e-02 -9.0802192687988281e-02 -9.7876265645027161e-03 1.2055522948503494e-01 -1.1902229487895966e-01 1.0905088484287262e-01 7.1240805089473724e-02 3.6849632859230042e-02 -3.3799674361944199e-02 -8.5183829069137573e-02 -1.1887439340353012e-01 6.0649625957012177e-02 -5.2382055670022964e-02 -1.0961734503507614e-01 1.1261620372533798e-01 2.0780086517333984e-02 -9.4192974269390106e-02 -5.8880988508462906e-02 -6.4328849315643311e-02 3.1041225884109735e-03 -7.2063207626342773e-03 -7.6558664441108704e-02 2.2609865292906761e-02 7.3070421814918518e-02 4.6900324523448944e-02 -8.8496647775173187e-02 -7.7697001397609711e-02 -4.9300804734230042e-02 -5.1723029464483261e-02 -1.2960554659366608e-01 8.2574628293514252e-02 1.2080260552465916e-02 -1.1706650257110596e-01 -1.2436862103641033e-02 7.9777210950851440e-02 7.9184100031852722e-02 7.2841532528400421e-02 -7.7754251658916473e-02 -2.0490489900112152e-02 -6.9568499922752380e-02 5.8723222464323044e-03 -1.1501571536064148e-01 -3.2213866710662842e-02 -8.3797760307788849e-02 1.5979716554284096e-02 4.0627410635352135e-03 3.3315416425466537e-02 5.0748430192470551e-02 7.1181141538545489e-04 6.7682452499866486e-02 1.1697786301374435e-01 -4.0663138031959534e-02 -3.2701399177312851e-02 3.4648314118385315e-02 -1.4173195697367191e-02 3.5704907029867172e-02 1.0329301655292511e-01 2.0424108952283859e-02 -3.9494406431913376e-02 -9.1909624636173248e-02 -1.0700727999210358e-01 -5.7779412716627121e-02 8.1845425069332123e-02 -7.6329195871949196e-03 6.5366744995117188e-02 3.2865088433027267e-02 -6.8951919674873352e-02 9.3052601441740990e-03 -3.7437614053487778e-02 -3.5059064626693726e-02 -2.8695480898022652e-02 1.4528049156069756e-02 1.9239159300923347e-02 6.1095438897609711e-02 1.0186126455664635e-02 -1.5595543198287487e-02 1.3371066749095917e-01 9.9794656038284302e-02 2.6126313954591751e-02 1.1988546699285507e-01 2.0634442567825317e-02 -4.3666426092386246e-02 -1.0977014899253845e-01 -6.6482394933700562e-02 -3.2894272357225418e-02 -9.8792321979999542e-02 3.0739402398467064e-02 -3.3340904861688614e-02 -1.4867850579321384e-02 1.5532208606600761e-02 -6.2211859971284866e-02 -1.2871111929416656e-01 7.4119023978710175e-02 -9.8751805722713470e-02 -7.9190239310264587e-02 -6.8763636052608490e-02 5.7221505790948868e-02 -8.3184733986854553e-02 -7.0791512727737427e-02 1.0141015052795410e-01 9.2068500816822052e-03 1.1912160553038120e-02 6.6336959600448608e-02 1.4944741129875183e-01 -9.7508735954761505e-02 1.2905195355415344e-01 1.2252441048622131e-01 -7.7274948358535767e-02 1.2527421116828918e-01 -7.5251951813697815e-02 5.6340809911489487e-02 6.2580034136772156e-02 1.2196125090122223e-01 -1.1422861367464066e-01 8.5084326565265656e-02 -1.1989908665418625e-01 -5.3875703364610672e-02 -5.7454384863376617e-02 9.5168687403202057e-02 -1.3108865916728973e-01 1.2114508450031281e-01 1.3225492835044861e-01 8.7860971689224243e-02 1.6951503232121468e-02 -6.2262255698442459e-02 2.3054614663124084e-02 2.3393316194415092e-02 4.5277182012796402e-02 4.0513552725315094e-02 4.8883739858865738e-02 -1.0258936882019043e-01 7.2678297758102417e-02 -9.0415976941585541e-02 -1.1714722216129303e-01 7.4844613671302795e-02 5.7422459125518799e-02 -1.2078754603862762e-01 -9.4987288117408752e-02 -6.8419761955738068e-02 1.0173436999320984e-01 1.0175018012523651e-01 5.5025763809680939e-02 -1.1715580523014069e-01 -9.3535408377647400e-02 -6.4853049814701080e-02 -2.3535421118140221e-02 8.4042280912399292e-02 1.5209120512008667e-01 2.5761758908629417e-02 8.9734330773353577e-02 -2.2826440632343292e-02 -1.6342183575034142e-02 -4.0903907269239426e-02 9.7137629985809326e-02 2.4596929550170898e-02 -1.2554281949996948e-01 -5.2200783975422382e-03 7.1584880352020264e-02 -2.7828775346279144e-02 7.8555949032306671e-02 1.9483070820569992e-02 -1.1116942763328552e-01 -6.5755859017372131e-02 -6.0535851866006851e-02 3.1585589051246643e-02 -7.8268460929393768e-02 -5.3511824458837509e-02 9.9962651729583740e-02 3.2267078757286072e-02 -1.0910330712795258e-01 1.5092074871063232e-01 -7.7211700379848480e-02 8.5579834878444672e-02 -1.0635109245777130e-01 -1.2744519114494324e-01 8.8853456079959869e-02 1.2317360192537308e-01 -8.9498460292816162e-02 7.4822474271059036e-03 1.2961877882480621e-01 -9.1674745082855225e-02 -1.9954735413193703e-02 6.3954986631870270e-02 6.6711172461509705e-02 1.3433764874935150e-01 1.0866999626159668e-01 1.0181857645511627e-01 2.1162621676921844e-02 -2.0565276965498924e-02 9.7466101869940758e-03 -7.0681065320968628e-02 2.1232264116406441e-02 8.7620727717876434e-02 6.9539450109004974e-02 -4.4317018240690231e-02 -1.2389027327299118e-01 -1.5256134793162346e-02 9.7951076924800873e-02 -1.0669595561921597e-02 5.8710828423500061e-02 -1.4202036894857883e-02 -7.2539836168289185e-02 3.3374402672052383e-02 -9.5393601804971695e-03 7.5039342045783997e-02 1.3441656529903412e-01 3.2479614019393921e-03 2.2153144702315331e-02 1.1178568005561829e-02 -9.3317955732345581e-02 8.9538224041461945e-02 7.2551108896732330e-02 1.5424099564552307e-01 1.0057509690523148e-01 3.2991822808980942e-02 1.5817224979400635e-01 1.8004001677036285e-01 1.1084827780723572e-01 3.4161727875471115e-02 -8.1927180290222168e-02 4.3245010077953339e-02 -2.9964070767164230e-02 -9.0116769075393677e-02 -5.0954949110746384e-02 3.1662691384553909e-02 -7.0735573768615723e-02 1.1177868396043777e-01 3.1187169253826141e-02 7.3719233274459839e-02 -6.1480805277824402e-02 -3.3763211686164141e-03 3.0189370736479759e-02 -1.4337922446429729e-02 -3.4240048844367266e-03 -7.0760883390903473e-02 6.2517255544662476e-02 3.6060377955436707e-02 4.7157030552625656e-02 1.3459353148937225e-01 3.5610552877187729e-02 7.8032560646533966e-02 1.2982666492462158e-01 9.8977111279964447e-02 2.2157372534275055e-01 -1.8040713667869568e-01 -8.5205428302288055e-02 -2.7591906487941742e-02 1.4360950887203217e-01 1.6243438422679901e-01 7.3348596692085266e-02 2.6430813595652580e-02 4.2399238795042038e-02 7.6872743666172028e-02 1.0133223980665207e-01 1.4754277653992176e-02 1.3610006868839264e-01 -1.0362905263900757e-01 -9.3403398990631104e-02 8.5008352994918823e-02 -2.0676324144005775e-02 1.2628888711333275e-02 2.7975155040621758e-02 -1.2500748038291931e-01 -7.0612475275993347e-02 4.1906509548425674e-02 -2.1141430735588074e-01 3.6500416696071625e-02 6.2125775963068008e-02 1.1784197390079498e-01 -4.5834582298994064e-02 1.2490893900394440e-01 5.2396539598703384e-02 -4.5055698603391647e-02 -6.3836850225925446e-02 1.6793937981128693e-01 5.9986162930727005e-02 -2.3078086972236633e-01 9.8357550799846649e-02 1.5337323769927025e-02 1.3435122370719910e-01 -1.8024044111371040e-02 1.0929585248231888e-01 7.5707845389842987e-02 -2.2511382400989532e-01 2.1264159679412842e-01 1.5638181567192078e-01 -8.4296971559524536e-02 6.0933504253625870e-02 1.4011677354574203e-02 -4.9051556736230850e-02 1.5864004194736481e-01 1.5472219325602055e-02 -4.7283009625971317e-03 -1.0435885749757290e-02 7.5349166989326477e-02 -2.8066128492355347e-02 8.8337156921625137e-03 8.2836627960205078e-02 1.4535085856914520e-01 -8.8359571993350983e-02 -3.8844201713800430e-02 -2.4230277538299561e-01 1.4902606606483459e-01 -3.0832743272185326e-02 1.5142728388309479e-01 1.0406105220317841e-01 -4.9445196986198425e-02 1.5801995992660522e-01 -3.9266161620616913e-02 -5.0926666706800461e-02 -3.9072524756193161e-02 -1.1821150779724121e-01 1.7084915190935135e-02 -1.1504045873880386e-01 -8.5431218147277832e-02 6.6889233887195587e-02 8.1855267286300659e-02 -1.7207749187946320e-01 5.8025203645229340e-02 1.9216356799006462e-02 -1.0408164560794830e-01 7.3182769119739532e-02 1.2426594644784927e-01 -5.3844299167394638e-02 -2.0283604040741920e-02 -1.5585021115839481e-02 -1.0452640801668167e-01 -6.8898044526576996e-02 -7.9497888684272766e-02 1.0573590174317360e-02 1.5282726287841797e-01 7.3830964975059032e-03 -7.5981050729751587e-02 1.0929394513368607e-01 9.8210386931896210e-02 9.6284903585910797e-02 3.2396648079156876e-02 -8.1287875771522522e-02 1.0525527596473694e-01 9.9805817008018494e-02 -2.1098066121339798e-02 1.5524160861968994e-01 -1.3358646631240845e-01 1.2349485605955124e-01 1.6805848479270935e-01 7.7401245944201946e-03 -4.9489974975585938e-02 3.0037654563784599e-02 8.1255979835987091e-02 -2.3139612376689911e-01 -5.7671468704938889e-02 -4.2302854359149933e-02 5.4452743381261826e-02 -1.9558860361576080e-01 -7.8849606215953827e-02 9.9958991631865501e-03 -8.7912660092115402e-03 1.6901279985904694e-01 -8.0757439136505127e-02 8.5024610161781311e-02 -6.6851869225502014e-02 7.0176929235458374e-02 1.1909911781549454e-01 7.3733963072299957e-02 -1.4409660361707211e-03 6.1059955507516861e-02 -3.2326649874448776e-02 7.8643448650836945e-02 3.1068624928593636e-02 -1.7877576872706413e-02 7.0072516798973083e-02 1.8561508506536484e-02 -5.5855203419923782e-02 -3.4209205769002438e-03 -9.1526105999946594e-02 -1.5509729087352753e-01 -8.8633216917514801e-02 -5.7575378566980362e-02 -5.4388113319873810e-02 -5.4941914975643158e-02 -1.1013932526111603e-01 -1.0664550215005875e-01 1.5615315735340118e-01 8.2313254475593567e-02 7.1082077920436859e-02 9.2493288218975067e-02 -3.5687785595655441e-02 -1.1262059956789017e-01 1.9119592383503914e-02 -1.4027473516762257e-02 3.1449466943740845e-02 4.1624300181865692e-02 -6.2162932008504868e-02 6.4014464616775513e-02 -2.8932090848684311e-02 -1.0786747559905052e-02 7.7504385262727737e-03 -1.0279350914061069e-02 1.7146917060017586e-02 -1.4694929122924805e-02 -5.5082701146602631e-03 1.5145426616072655e-02 7.0945061743259430e-02 1.5202994644641876e-01 -7.7778823673725128e-02 -8.0963887274265289e-02 1.0902705788612366e-01 1.9918942416552454e-04 2.7912056073546410e-02 2.0239535719156265e-02 1.6960725188255310e-01 2.6057744398713112e-02 -1.5864117443561554e-01 -1.0461980104446411e-01 1.1454162001609802e-01 1.6448341310024261e-01 9.7554795444011688e-02 -1.1251705139875412e-01 -1.2439480423927307e-01 -4.4345434755086899e-02 8.7789990007877350e-02 -4.6524964272975922e-02 -1.3770829886198044e-02 3.9836492389440536e-02 7.9519264400005341e-03 5.0647836178541183e-02 -2.4330213665962219e-02 6.5576776862144470e-02 -9.8000623285770416e-02 -4.8334985971450806e-02 1.2835296988487244e-01 7.6328679919242859e-02 -2.2635800763964653e-02 2.4805763736367226e-02 1.2992407381534576e-01 1.6606490314006805e-01 -8.1608526408672333e-02 8.8539369404315948e-02 1.7582532018423080e-02 -1.5274384059011936e-02 -9.2140935361385345e-02 5.9780769050121307e-02 -3.8368273526430130e-02 -5.1760762929916382e-02 1.1719746142625809e-01 6.2626145780086517e-02 1.6555741429328918e-01 5.5023562163114548e-02 -6.2730491161346436e-02 6.1056218110024929e-03 2.6669388636946678e-02 4.7307711094617844e-02 8.8989220559597015e-02 -1.1323112994432449e-01 3.7733968347311020e-02 1.0627190023660660e-01 -9.7248740494251251e-02 -1.0035752318799496e-02 4.0114495903253555e-02 -1.2554410099983215e-01 7.4004679918289185e-02 -7.5160205364227295e-02 -1.1761523038148880e-01 7.1962431073188782e-02 -9.9864125251770020e-02 3.9088282734155655e-02 6.7679226398468018e-02 3.7682882975786924e-04 -3.9719875901937485e-02 -6.8892717361450195e-02 -2.1920153871178627e-02 -7.3967315256595612e-02 9.5748618245124817e-02 3.3888034522533417e-02 -3.9525609463453293e-02 1.3517840206623077e-01 1.4612640440464020e-01 -1.4471949636936188e-01 -2.9485920444130898e-02 1.0837086290121078e-01 9.6183612942695618e-02 -5.4660834372043610e-02 -9.5016367733478546e-02 -7.5750492513179779e-02 7.2381667792797089e-02 -1.2493491172790527e-01 1.1542777530848980e-02 -4.5600358396768570e-02 6.7993499338626862e-02 1.9447652623057365e-02 1.9610468298196793e-03 5.6213073432445526e-02 3.7359844893217087e-02 3.7861391901969910e-02 -1.1977725476026535e-01 4.7636043280363083e-02 -6.8850763142108917e-02 3.6479044705629349e-02 -5.7974673807621002e-02 -6.5209686756134033e-02 1.2143371254205704e-01 -1.6760574281215668e-01 -1.0969724506139755e-01 -1.0477578639984131e-01 -1.7192333936691284e-02 4.1736572980880737e-02 -7.9430982470512390e-02 -6.6963493824005127e-02 -1.1656001210212708e-01 -1.8162643536925316e-02 -4.4440999627113342e-02 1.3722694478929043e-02 -6.3506737351417542e-02 9.1307632625102997e-02 -3.7420228123664856e-02 1.2084711343050003e-01 -1.0123796015977859e-01 1.6080005094408989e-02 -9.4145469367504120e-02 9.1007184237241745e-03 -1.8355263397097588e-02 -8.2445055246353149e-02 5.4267328232526779e-02 8.4541112184524536e-02 3.5850696265697479e-02 2.7198370546102524e-02 1.3550637662410736e-01 -1.5975201502442360e-02 9.0171918272972107e-02 -9.8911777138710022e-02 2.1446026861667633e-02 -4.4403336942195892e-02 -2.1200034767389297e-02 -1.0104685276746750e-01 1.3162217102944851e-02 -5.4193563759326935e-02 -2.0765897631645203e-01 -6.5817728638648987e-02 1.0447246022522449e-02 1.0467129945755005e-01 -1.4696446061134338e-01 5.2559599280357361e-02 -7.3227591812610626e-02 8.1873252987861633e-02 1.0609468072652817e-01 -8.4620915353298187e-02 1.4486196637153625e-01 -7.3784808628261089e-03 -4.0082789957523346e-02 5.2394289523363113e-02 2.8729422017931938e-02 5.3129788488149643e-02 1.1212664842605591e-01 -1.1582592129707336e-01 1.4145539700984955e-01 6.8965539336204529e-02 -8.1185705959796906e-02 4.7789551317691803e-02 9.4988100230693817e-02 5.7561527937650681e-02 1.4396014809608459e-01 -5.8503389358520508e-02 8.4259741008281708e-02 8.1698879599571228e-02 -9.5904573798179626e-02 5.8504145592451096e-02 -9.7899977117776871e-03 9.6866071224212646e-02 1.1388277262449265e-01 1.2645564042031765e-02 1.7942542210221291e-02 -1.0861787199974060e-01 6.7182861268520355e-02 2.5326073169708252e-02 1.4207881689071655e-01 6.6941641271114349e-02 -5.0403896719217300e-02 8.2641236484050751e-02 -1.3502004742622375e-01 -1.1663439869880676e-01 -6.0725044459104538e-02 3.0311610549688339e-02 3.8393307477235794e-02 1.0780471563339233e-01 1.9617781508713961e-03 1.0616738349199295e-01 -1.1415065079927444e-01 -1.1167439818382263e-01 -3.2569139730185270e-03 1.6511645168066025e-02 4.9962890334427357e-03 -8.1221409142017365e-02 -1.0855076834559441e-02 8.9027635753154755e-02 -8.5341192781925201e-02 -3.4322325140237808e-02 -3.5955380648374557e-02 1.4663420617580414e-01 -1.0840052366256714e-01 -1.2010041624307632e-01 -3.5813659429550171e-02 4.3239828199148178e-02 1.2154091149568558e-01 1.7085985839366913e-01 -3.3539075404405594e-02 6.5801039338111877e-02 -2.0311810076236725e-02 -2.1400734782218933e-02 2.0713971927762032e-02 8.4692366421222687e-02 1.1414713412523270e-01 -9.1052062809467316e-02 -3.5406865179538727e-02 -1.4201130717992783e-02 1.2275817245244980e-01 -5.3952228277921677e-02 -1.6797188669443130e-02 3.3811077475547791e-02 -1.5132413804531097e-01 -2.3650567978620529e-02 -8.2666642963886261e-02 2.6765611022710800e-02 1.2770438194274902e-01 -1.2869827449321747e-01 -3.1707764137536287e-03 -2.6322061195969582e-02 1.1907700449228287e-01 -1.1647328734397888e-01 1.5171860158443451e-01 -2.0300738513469696e-01 -1.1313159018754959e-01 9.2747263610363007e-02 1.6954930126667023e-01 -8.1332966685295105e-02 4.0922768414020538e-02 -5.9171169996261597e-02 6.7665472626686096e-02 -7.3505662381649017e-02 -2.2811317443847656e-01 -6.0850080102682114e-02 7.2888381779193878e-02 -1.1130286753177643e-01 -2.7680965140461922e-03 -1.7480656504631042e-02 -4.2779345065355301e-02 -2.7901903376914561e-04 -6.2262993305921555e-02 1.2335912138223648e-01 -5.6042023003101349e-02 -8.1302979961037636e-03 6.5689913928508759e-02 8.9270479977130890e-02 -3.4910924732685089e-02 -5.5889055132865906e-02 1.0622976720333099e-01 8.7263792753219604e-02 -1.1757222563028336e-01 9.8108895123004913e-02 6.8743637530133128e-04 1.2808975577354431e-01 -8.2355484366416931e-02 -5.9614762663841248e-02 1.3080602884292603e-01 2.2829780355095863e-02 1.1862774193286896e-01 -5.8698281645774841e-02 7.4539661407470703e-02 -1.8429133296012878e-01 3.3646789193153381e-01 9.0567819774150848e-02 -2.1464017033576965e-01 6.7185677587985992e-02 1.8195919692516327e-01 -2.0934638450853527e-04 9.7267879173159599e-03 9.1361150145530701e-02 -8.1873941235244274e-04 -6.7809261381626129e-02 8.3243191242218018e-02 7.4599073268473148e-03 -9.1485135257244110e-02 -7.6740905642509460e-02 1.8109458684921265e-01 1.0614205896854401e-01 2.3896684870123863e-02 4.5731119811534882e-02 -1.2721617519855499e-01 -7.6421223580837250e-02 1.1460094898939133e-01 -1.0803819447755814e-01 -2.7493165805935860e-02 1.1966287344694138e-01 -2.1744627505540848e-02 5.5595086887478828e-03 7.6825134456157684e-02 -1.4324786141514778e-02 4.4989105314016342e-02 2.9347860813140869e-01 1.1760943382978439e-01 6.5736100077629089e-02 2.7933709323406219e-02 4.1167009621858597e-02 -6.3608970958739519e-04 -4.1378583759069443e-02 7.6676979660987854e-02 1.4903999865055084e-02 9.7878374159336090e-02 5.2652940154075623e-02 -6.8736307322978973e-02 -1.6237953677773476e-02 7.3428079485893250e-02 -4.6274334192276001e-02 7.7982328832149506e-02 -8.1955362111330032e-03 2.0096423104405403e-02 -1.3808046281337738e-01 -6.6029652953147888e-02 2.1980758011341095e-01 7.8186970204114914e-03 -3.0634494498372078e-02 4.1124429553747177e-03 -1.5441033244132996e-01 4.4557038694620132e-02 3.1183311715722084e-02 8.5951253771781921e-02 9.6992095932364464e-03 -1.1748999357223511e-01 4.9342021346092224e-02 -7.7534377574920654e-02 1.2934862077236176e-01 -1.9263837486505508e-02 9.0734101831912994e-02 -1.4289399608969688e-02 7.7568203210830688e-02 -5.8792838826775551e-03 -9.0389005839824677e-02 8.4652893245220184e-02 -1.8443739041686058e-02 -4.1934985667467117e-02 -6.1802227050065994e-02 -6.5380774438381195e-02 1.6497705876827240e-01 -2.6526406407356262e-02 1.8743982911109924e-01 -2.1875275298953056e-02 -3.7771388888359070e-02 4.1164770722389221e-02 7.2456620633602142e-02 -1.2118230760097504e-01 4.0717418305575848e-03 4.7219656407833099e-02 3.9581131190061569e-02 -1.0684005171060562e-01 -5.8511719107627869e-02 2.9264960438013077e-02 6.1049405485391617e-02 -1.3368541002273560e-01 -3.9429948665201664e-03 2.3128560185432434e-01 1.3719474896788597e-02 -1.6403029859066010e-01 -5.7714797556400299e-02 1.7564814537763596e-02 -1.1963044852018356e-01 -3.4611299633979797e-02 -9.9270999431610107e-02 1.6708913445472717e-01 1.7332115769386292e-01 -3.3682554960250854e-02 -3.4514341503381729e-02 -2.4756902828812599e-02 2.7591900900006294e-02 1.1773462593555450e-01 4.8494338989257812e-02 1.1096689105033875e-01 1.4456900954246521e-01 1.1975023895502090e-01 1.0004675015807152e-02 4.7330956906080246e-02 -8.2318121567368507e-03 4.9555744975805283e-02 8.9959472417831421e-02 2.4881964549422264e-02 -1.5087214112281799e-01 -1.1976068839430809e-02 -1.6526463627815247e-01 1.8446853384375572e-02 -5.7903528213500977e-02 6.7914962768554688e-02 6.0719933360815048e-02 4.5810673385858536e-02 -2.8015267103910446e-02 1.9339515268802643e-01 2.5094105512835085e-04 1.5592984855175018e-01 1.3199143111705780e-01 -8.8736400008201599e-02 7.8037343919277191e-02 1.2728041410446167e-01 -2.0066931843757629e-02 -1.0202259570360184e-01 1.0269197821617126e-01 1.0031795501708984e-01 7.3860146105289459e-02 8.5383318364620209e-02 -7.5591631233692169e-02 -6.5305851399898529e-02 -1.0346993058919907e-01 -6.1653546988964081e-02 7.7466336078941822e-03 -1.4621265232563019e-01 1.0855267941951752e-01 -1.7670076340436935e-02 -1.0297685116529465e-01 -2.2585584223270416e-01 4.8273440450429916e-02 8.1472583115100861e-03 -3.3229431137442589e-03 2.7823017910122871e-02 6.6490620374679565e-02 -6.8505607545375824e-02 8.0775335431098938e-02 6.5407454967498779e-02 -1.2166021019220352e-01 -3.2322421669960022e-02 -8.2358092069625854e-02 7.9060800373554230e-02 -1.1392256617546082e-01 -4.3619152158498764e-02 -1.1891055852174759e-01 1.1897983495146036e-03 -3.0799396336078644e-02 1.0621953988447785e-03 2.7912989258766174e-02 -8.6981475353240967e-02 1.3702124357223511e-01 -5.4421719163656235e-02 -3.5895910114049911e-03 -1.7961254343390465e-02 6.2500141561031342e-02 -1.0797481238842010e-01 -9.8732292652130127e-02 -5.0188568420708179e-03 -1.2812024354934692e-01 -7.1993060410022736e-02 -2.3211805149912834e-02 8.5042320191860199e-02 -1.4889691025018692e-02 -9.0531684458255768e-02 1.2324576824903488e-01 7.9086780548095703e-02 1.0047907941043377e-02 -5.4622944444417953e-03 -5.4531611502170563e-02 4.3943613767623901e-02 9.7951710224151611e-02 1.9832149147987366e-02 1.0437497496604919e-01 6.5648727118968964e-02 1.6296596825122833e-01 7.8412286937236786e-02 -1.8528330326080322e-01 -6.2378261238336563e-02 -1.1973885446786880e-01 -4.8077126848511398e-04 -1.4942607283592224e-01 1.1048522777855396e-02 -1.6374738886952400e-02 -9.0649001300334930e-02 -3.1633144244551659e-03 -8.3195500075817108e-02 -2.8262328356504440e-02 -1.1423879861831665e-01 6.9436855614185333e-02 -2.1347155794501305e-02 -8.0798029899597168e-02 -4.5295618474483490e-02 -5.7983254082500935e-03 1.7756942659616470e-02 9.0671278536319733e-02 5.2922062575817108e-02 1.0861371643841267e-02 7.9272240400314331e-02 -7.8052118420600891e-02 5.4444212466478348e-02 -5.6765746325254440e-02 -3.6258153617382050e-02 -7.5932301580905914e-02 -3.3495675306767225e-03 -2.9131320770829916e-03 1.0109405219554901e-01 -4.4511724263429642e-02 7.3056139051914215e-02 2.7254667133092880e-02 -1.1462287604808807e-01 -1.1600477248430252e-01 7.4582792818546295e-02 -2.4034122005105019e-02 7.7373400330543518e-02 7.1414284408092499e-02 9.1677919030189514e-02 8.1084836274385452e-03 9.1802343726158142e-02 -5.6019596755504608e-02 -1.3742101378738880e-02 1.1082848906517029e-01 5.2072178572416306e-02 -1.1845728149637580e-03 5.8748658746480942e-02 7.9754084348678589e-02 -8.0785937607288361e-03 -6.4967766404151917e-02 -3.9484657347202301e-02 -6.2995031476020813e-02 4.0705110877752304e-02 1.8416799604892731e-02 1.0312752425670624e-01 3.4848313778638840e-02 -1.0287079215049744e-01 -9.2618152499198914e-02 1.4363533258438110e-01 3.8350421935319901e-02 3.5018097609281540e-02 -9.2918299138545990e-02 1.2916903197765350e-01 -1.0534876026213169e-02 2.5730092078447342e-02 -7.5974822044372559e-02 -9.8931245505809784e-02 -5.8467101305723190e-02 3.6930456757545471e-02 -5.9723477810621262e-02 1.0716441273689270e-01 1.0977742262184620e-02 2.1907500922679901e-02 -3.0927957966923714e-02 5.2036643028259277e-02 -2.2519547492265701e-02 -5.7650990784168243e-02 1.1569683440029621e-02 5.1531195640563965e-02 4.3914769776165485e-03 2.5959843769669533e-02 5.9072673320770264e-02 2.1049669012427330e-02 3.5588108003139496e-02 3.4415852278470993e-02 -8.6970940232276917e-02 5.2691146731376648e-02 -5.6489378213882446e-02 -4.0054455399513245e-02 3.6376107484102249e-02 -1.1127185076475143e-01 -5.1404394209384918e-02 -7.3689267039299011e-02 6.6133745014667511e-02 8.0933138728141785e-02 -1.0541710257530212e-01 -6.6171273589134216e-02 8.8374003767967224e-02 -6.8499036133289337e-02 7.5930207967758179e-02 1.2082594633102417e-01 1.6941895708441734e-02 1.0964991897344589e-01 -1.1654739081859589e-01 -8.2999624311923981e-02 3.4976666793227196e-03 5.2923452109098434e-02 -5.0777666270732880e-02 8.5917077958583832e-02 -8.0859959125518799e-02 -5.4798373021185398e-03 -7.1800194680690765e-02 -5.6222095154225826e-03 -8.1568561494350433e-02 -7.7811911702156067e-02 -4.6071324497461319e-02 1.0795137844979763e-02 7.0606634020805359e-02 4.4967703521251678e-02 -1.1529947817325592e-01 1.3902271166443825e-02 -1.3411995023488998e-02 -1.2136103212833405e-01 8.7122276425361633e-02 -6.5114796161651611e-02 -1.3084939680993557e-02 -1.0713308304548264e-01 6.8595729768276215e-02 5.9526439756155014e-02 -6.7737184464931488e-02 -7.2499215602874756e-02 1.2651535682380199e-02 6.2595582567155361e-03 5.6035341694951057e-03 -9.0738972648978233e-03 -3.5421375185251236e-02 -4.9546346068382263e-02 -5.9151448309421539e-02 4.3172776699066162e-02 -1.7521418631076813e-02 7.7727526426315308e-02 4.3643802404403687e-02 -9.7941309213638306e-02 9.5554076135158539e-02 -2.9694917611777782e-03 -1.1069221049547195e-01 -3.5631056874990463e-02 -7.8565822914242744e-03 -5.2855785936117172e-02 -1.0208401829004288e-02 -2.6256455108523369e-02 1.9368289411067963e-01 -2.0668422803282738e-02 2.5776278227567673e-02 -2.3879511654376984e-01 1.3956958055496216e-01 -7.9591900110244751e-02 9.3181073665618896e-02 -8.7359510362148285e-02 5.4754588752985001e-02 5.4410323500633240e-02 -7.1896471083164215e-02 -6.7880518734455109e-02 3.4286968410015106e-02 -3.2757621258497238e-02 -8.2637213170528412e-02 2.0167154073715210e-01 4.5883461833000183e-02 9.6660286188125610e-02 5.3881090134382248e-03 -3.4133553504943848e-02 1.5355531871318817e-01 1.1327534168958664e-01 5.7469349354505539e-02 3.0840176623314619e-03 1.0906592942774296e-02 6.0972098261117935e-02 3.2085612416267395e-02 1.6120024025440216e-02 5.8858327567577362e-02 -1.2543402612209320e-01 -3.5382129251956940e-02 4.0428668260574341e-02 -4.0837433189153671e-02 -3.3451739698648453e-02 -9.3227759003639221e-02 -7.5106690637767315e-03 1.0348458588123322e-01 -1.0077598690986633e-01 1.7787104845046997e-01 -5.2820779383182526e-02 1.0705252736806870e-01 1.3188800215721130e-01 -2.8237944468855858e-02 -1.0860200971364975e-01 -1.9497219473123550e-02 7.3843824793584645e-05 1.2840819358825684e-01 -4.1008535772562027e-02 5.6990746408700943e-02 -8.5529647767543793e-02 -2.9920699074864388e-02 6.9725371897220612e-02 -7.7695697546005249e-02 6.4738191664218903e-02 -6.1904039466753602e-04 -6.7017870023846626e-03 1.2137063592672348e-01 -7.3493972420692444e-02 9.0304411947727203e-02 1.1330371350049973e-01 -1.0979132354259491e-01 8.8509038090705872e-02 -7.5898550450801849e-02 4.9284439533948898e-02 -1.0999891906976700e-02 -2.0633770525455475e-01 -3.9212156087160110e-02 -7.1932403370738029e-03 2.2471958771348000e-02 -3.7537176162004471e-02 2.2818213328719139e-02 -9.3325249850749969e-02 9.7357988357543945e-02 -4.0860589593648911e-02 -1.0894823074340820e-01 1.5537257492542267e-01 -1.2244812399148941e-01 1.6677768900990486e-02 -5.3124610334634781e-02 8.3080045878887177e-02 -6.0640233568847179e-03 1.7031431198120117e-01 1.6113039106130600e-02 -1.0718843340873718e-01 5.7886403053998947e-02 -2.1091239526867867e-02 -8.6266025900840759e-02 -2.3560493718832731e-03 -7.1961171925067902e-02 1.6487292945384979e-01 -5.1293857395648956e-02 1.6475005447864532e-01 -7.2166413068771362e-02 8.9439004659652710e-02 1.3890537619590759e-01 -1.0107214003801346e-01 -5.6995369959622622e-04 -1.1946742888540030e-03 -1.2552820146083832e-01 -8.7841957807540894e-02 -8.6792849004268646e-02 1.2021224200725555e-01 -9.6333898603916168e-02 -1.2813720107078552e-01 -3.1997580081224442e-02 1.5744166076183319e-01 -5.2936963737010956e-02 3.9984002709388733e-02 1.3861724734306335e-01 1.1220867186784744e-01 2.6760648470371962e-03 3.4461922477930784e-03 1.2310387194156647e-01 -7.3715522885322571e-02 -5.1986295729875565e-02 7.9317856580018997e-03 7.5909234583377838e-03 9.5423027873039246e-02 6.6386140882968903e-02 -2.0638946443796158e-02 7.4942815117537975e-03 1.8023560941219330e-01 4.4345777481794357e-02 1.0706204921007156e-01 -3.8532607257366180e-02 3.9782587438821793e-02 -1.1687824875116348e-01 2.0938597619533539e-01 4.7480959445238113e-02 -5.3206343203783035e-02 1.7391391098499298e-01 -1.2657490372657776e-01 -3.0278934165835381e-02 1.5450763702392578e-01 -2.1565709263086319e-02 -9.9732624366879463e-03 2.5193715468049049e-02 -7.1902796626091003e-02 6.5962798893451691e-02 -2.0161135122179985e-02 2.1122196689248085e-02 6.2912516295909882e-02 -1.2003431469202042e-01 1.2405116856098175e-01 -8.2709863781929016e-02 4.9195799976587296e-02 -1.9148546457290649e-01 2.4595168232917786e-01 2.5194177031517029e-01 3.4611735492944717e-02 6.4774543046951294e-02 -1.0881046950817108e-01 -8.5715018212795258e-02 -1.1971361003816128e-02 5.6542545557022095e-02 -1.2030124664306641e-01 1.3096651434898376e-01 -2.8581151738762856e-02 1.7001779749989510e-02 -4.7729689627885818e-02 2.4816164746880531e-02 7.5140886008739471e-02 1.3731728494167328e-01 8.3060950040817261e-02 4.7543551772832870e-02 5.1217254251241684e-02 2.3419088125228882e-01 6.1684254556894302e-02 2.0748347742483020e-04 9.9926784634590149e-02 -8.1426352262496948e-02 -5.4114654660224915e-02 -6.5687783062458038e-02 -7.9110860824584961e-02 1.1826129257678986e-01 1.6650032252073288e-02 -1.4247740618884563e-02 -4.3012488633394241e-02 -1.0356652736663818e-01 6.1978656798601151e-02 -6.7938074469566345e-02 -4.8544507473707199e-02 3.8246915210038424e-03 7.3053218424320221e-02 1.7868463695049286e-01 -8.6466550827026367e-02 5.3872824646532536e-03 8.5698477923870087e-03 -1.0328241437673569e-01 2.4619109928607941e-02 -6.1303120106458664e-02 -1.0624267905950546e-01 1.2661528587341309e-01 -8.9583337306976318e-02 1.3999819755554199e-01 -1.2496727705001831e-01 1.9607405364513397e-01 -2.6776561513543129e-02 -5.3090021014213562e-02 -6.5367445349693298e-02 -7.5886584818363190e-02 1.1426410824060440e-01 3.4577127546072006e-02 7.8643351793289185e-02 -1.0217978805303574e-01 3.1673125922679901e-02 1.5856786072254181e-01 -1.9934993237257004e-02 2.9897918924689293e-02 -2.3761054500937462e-02 7.2165854275226593e-02 -4.1329693049192429e-03 2.1172542870044708e-01 -3.6068179178982973e-03 -1.0460046678781509e-01 -5.2911989390850067e-02 1.5101407468318939e-01 6.9783669896423817e-03 -6.7241944372653961e-02 4.3755039572715759e-02 -2.5660492479801178e-02 1.2132045812904835e-02 6.8389728665351868e-02 -8.4161460399627686e-02 -7.8822113573551178e-02 -2.3109158501029015e-02 -3.0712053179740906e-01 2.9317000508308411e-01 -8.7362855672836304e-02 -7.2078093886375427e-02 -1.3379015028476715e-01 3.2060269266366959e-02 2.0168626308441162e-01 1.0247442871332169e-01 3.9928484708070755e-02 -2.3043599724769592e-01 7.4811816215515137e-02 -5.6385047733783722e-02 -8.8704749941825867e-02 -6.5709136426448822e-02 1.0699939727783203e-01 -9.3722172081470490e-02 -1.5643110871315002e-01 7.9875878989696503e-02 1.4126828312873840e-01 -1.0629182308912277e-01 -4.1436184197664261e-02 -7.5529865920543671e-02 -8.4488941356539726e-03 -1.4524458348751068e-01 -6.6780117340385914e-03 5.8221668004989624e-02 1.4705380797386169e-01 3.1773619353771210e-02 1.2321741878986359e-01 -3.3175230491906404e-03 -7.0052295923233032e-02 -1.6790206730365753e-01 2.1146766841411591e-02 -2.0200084894895554e-02 -1.2582485377788544e-01 1.4879903197288513e-01 2.1290037781000137e-02 7.5163774192333221e-02 -1.4541007578372955e-01 1.6496977210044861e-01 -6.3819780945777893e-02 4.3851453810930252e-02 6.6698960959911346e-02 1.9830238074064255e-02 1.5565811190754175e-03 -1.0545655153691769e-02 2.5164920091629028e-01 -2.0547570288181305e-01 -5.4761454463005066e-02 -5.8549489825963974e-02 6.8634547293186188e-02 7.8716486692428589e-02 -1.2606250122189522e-02 -1.9175300374627113e-02 -7.8717082738876343e-02 -9.6538932994008064e-03 -6.5766453742980957e-02 1.0239497572183609e-01 1.4419133961200714e-01 2.6389196515083313e-01 -1.9265408813953400e-01 -2.3426605388522148e-02 -2.5799633935093880e-02 -1.9913958013057709e-01 7.7595971524715424e-02 -8.4806747734546661e-02 -8.5485555231571198e-02 -1.0367866605520248e-01 3.8052162528038025e-01 -5.9540071524679661e-03 2.1292583644390106e-01 1.6787554323673248e-01 -1.6359283030033112e-01 -5.5271498858928680e-02 1.5951419249176979e-02 2.1208334714174271e-02 1.5218617022037506e-01 -1.0333831608295441e-01 -1.4506380259990692e-01 -8.3094732835888863e-03 -9.5550473779439926e-03 7.6600171625614166e-02 9.6597075462341309e-02 -1.4312849938869476e-01 -4.3829075992107391e-02 5.4473809897899628e-02 4.1264560818672180e-01 -2.3199765011668205e-02 1.0527449846267700e-01 -3.5950381308794022e-02 -1.7187929479405284e-03 -5.6236088275909424e-02 -8.0611392855644226e-02 1.4638532698154449e-01 -2.8025121428072453e-03 8.6961522698402405e-02 2.3756483569741249e-02 -9.6899025142192841e-02 -4.3368678539991379e-02 8.0258660018444061e-03 -1.4202910475432873e-02 2.6308846473693848e-01 3.8485594093799591e-02 -2.1498849615454674e-02 3.1584049575030804e-03 